{"config": {"vocab_size": 37, "d_model": 32, "n_heads": 2, "n_layers": 2, "d_ff": 128, "max_triples": 12}, "vocab": {"<pad>": 0, "#mode": 1, "type": 2, "advance": 3, "Luna": 4, "hunger": 5, "full": 6, "energy": 7, "exhausted": 8, "mood": 9, "sad": 10, "cleanliness": 11, "messy": 12, "action": 13, "play": 14, "content": 15, "Buddy": 16, "starving": 17, "rested": 18, "clean": 19, "tired": 20, "happy": 21, "Rocky": 22, "dirty": 23, "Max": 24, "walk": 25, "Daisy": 26, "nap": 27, "hungry": 28, "ignore": 29, "feed": 30, "pet": 31, "bathe": 32, "identity": 33, "cuddle": 34, "compete": 35, "play_with": 36}, "id2token": {"0": "<pad>", "1": "#mode", "2": "type", "3": "advance", "4": "Luna", "5": "hunger", "6": "full", "7": "energy", "8": "exhausted", "9": "mood", "10": "sad", "11": "cleanliness", "12": "messy", "13": "action", "14": "play", "15": "content", "16": "Buddy", "17": "starving", "18": "rested", "19": "clean", "20": "tired", "21": "happy", "22": "Rocky", "23": "dirty", "24": "Max", "25": "walk", "26": "Daisy", "27": "nap", "28": "hungry", "29": "ignore", "30": "feed", "31": "pet", "32": "bathe", "33": "identity", "34": "cuddle", "35": "compete", "36": "play_with"}, "embeddings": {"token": [[-0.284341, 0.201422, 0.172524, -0.412014, -0.152876, -0.108906, -0.443341, 0.262231, -0.4432, -0.098186, -0.04946, 0.181232, -0.582033, -0.314516, -0.290382, 0.199236, -0.113878, 0.36121, -0.209843, -0.228044, 0.257382, -0.116528, 0.448627, 0.159401, 0.316528, 0.255334, -0.093447, -0.30468, -0.249879, -0.5053, -0.198229, -0.114476], [-1.303544, 0.352896, -0.557891, -0.157113, -0.844794, 2.174637, -0.44945, 0.280405, -0.849432, -1.842173, -1.343707, -1.650385, -0.779455, -0.774423, -0.861581, 0.037984, -1.714939, -1.375549, -0.735373, 0.11229, -0.019014, -0.489149, -1.313852, 1.147581, -0.505406, -1.24651, -0.713085, 1.873553, -0.323725, -0.036936, -0.58603, -0.263242], [0.693898, 0.238886, -0.804167, 1.548169, 0.96697, 1.232964, -0.142888, 0.033902, 0.569128, -1.260313, 1.437977, 0.012968, -0.35146, 0.33233, 0.20638, 1.161089, -0.711546, -1.112394, -0.52498, -0.289216, -0.54287, -0.513517, 0.126704, 0.121298, 0.511333, -1.466872, 0.684255, -1.957176, -1.998893, 1.591111, -0.071182, -1.91265], [-1.291444, -0.302859, 2.28656, -1.035248, -2.019312, -0.324413, 0.814971, -0.929251, 0.999376, 0.653719, -0.971987, 0.700333, 0.242035, -0.481815, 0.180311, -0.524938, 0.008724, -1.905477, -0.152417, 0.045936, 0.067615, 0.355246, -0.076302, -1.505656, -2.054433, 1.133769, -0.580567, -0.647343, 0.738214, 0.982339, 1.52122, 0.343659], [-0.563416, 1.344768, 3.438432, -0.33585, -1.164633, -1.185011, -1.221145, -1.64699, 0.507107, -0.755181, -1.12835, 0.572968, -0.458184, -0.734588, 1.086262, -0.247813, -0.618846, -0.013949, 0.396183, -1.020411, 0.223592, -0.123303, 0.279638, -0.619481, -0.028679, -3.034677, -0.127737, 0.488587, -1.294781, 0.360117, -0.386831, -0.07734], [0.33351, -2.041725, 0.774769, -0.943079, 2.000321, -0.422862, 0.422378, -0.111053, 1.190634, -1.225439, 2.123342, -0.746474, 0.810553, 1.372835, -0.720663, 1.068712, 0.958443, -0.290586, -0.745565, -1.009707, 0.810892, 0.366603, 0.148382, 0.596106, -0.751587, -0.304376, 0.132122, -0.419703, 1.450577, 0.842504, 0.79731, 2.067218], [0.483338, 0.771689, -1.664814, 0.834447, -0.379999, 1.10351, 0.961751, -0.018386, -0.835544, 0.834746, 0.062412, -0.266365, 1.707786, -0.365709, 0.208554, -0.921646, 0.671744, 0.398631, 0.315882, -1.196439, -0.635037, -1.822369, 0.215608, 0.661946, 0.424235, 0.155693, -0.447255, 1.205757, -0.011171, 0.464859, 0.45914, 0.763948], [0.878205, -0.364304, 0.772715, 0.181376, 0.194029, 0.454554, 0.358876, -1.663445, 0.81385, -0.487717, 0.570234, 0.91403, 0.262165, 1.465046, -1.005475, 0.287373, -0.28318, 0.476501, -1.580907, 0.846794, -0.402933, 0.071658, -0.260035, -0.251902, -0.848975, 0.565592, 1.357284, 0.041969, -0.033757, -3.426945, -0.840669, -1.362101], [1.310607, 0.568475, 0.388721, -0.781463, -0.394808, 0.326675, 1.055012, -1.63468, 1.240652, -0.536448, 2.343067, -0.76591, 0.598955, 1.192774, 0.55302, 1.263261, -2.237604, -1.068782, -1.908868, 0.191987, -0.009206, 1.003765, -0.037052, -0.852365, -0.374596, 0.179877, -0.189257, -1.181237, -0.327662, -0.334441, 1.148924, 0.486087], [-1.303086, -0.757588, 1.610992, 0.520703, -1.608614, -0.337322, -0.128972, -0.780553, -0.741094, -0.006007, 0.043369, -1.493146, 0.038534, -1.325457, 0.559841, -1.33955, -1.259342, 1.033321, -1.206763, -1.395294, -1.481835, -0.440099, -2.146216, -2.055649, -1.282713, -1.508422, 0.494276, -0.399388, 0.715082, 0.387458, 0.473964, -1.008012], [1.159508, 0.602337, 1.91059, -1.515305, 0.537749, -0.913086, -1.374272, 1.696278, 0.250614, 1.686763, 0.149345, -2.910553, 0.154301, -0.800939, 0.320259, 1.937313, -0.051489, 1.399185, 1.671308, 1.797195, 0.597286, 0.160737, -1.138859, -0.187539, 0.316757, 0.167869, 0.16501, 0.041375, -0.506459, 0.406413, -0.062736, 0.842391], [-1.054325, 1.05607, 0.77361, -1.156554, -0.588866, 0.091709, -1.08338, 1.112841, -0.558059, -0.985003, -0.223168, -0.312403, -0.995713, 0.291786, -0.516659, -0.748745, 1.062906, -1.553797, -0.345391, 1.185716, 0.482118, 0.532582, -0.928139, -0.573104, 0.366846, -0.053684, 0.974245, -1.62863, -0.045919, -0.160944, -0.359154, -0.041559], [-1.28926, -1.637163, -0.010781, 0.320651, 1.225205, 0.80174, 0.656113, 0.031398, -1.354431, -1.173875, -0.420034, -0.64285, 0.291867, 1.157796, 0.26806, -0.329011, -0.065382, 0.488717, 2.442292, 1.036095, 0.153007, 0.332976, 0.448447, -1.744997, 1.021812, -0.042135, -0.712892, -0.225033, -0.184002, -0.104971, 0.41729, -0.886705], [-0.945957, -0.042756, 0.808912, 1.464345, 1.394188, -0.317937, -0.683308, 0.025451, -0.26252, -1.765892, -0.887127, -2.323405, -1.313658, -0.303449, -0.167395, 0.569238, 0.680323, -0.239163, 0.390612, -0.16064, 1.774413, -0.309219, -1.334223, -0.346007, 0.23629, -0.059866, 0.60306, 0.769339, -1.368106, 0.94065, 0.680117, -1.358969], [-0.945341, 0.766608, 0.234915, -1.620847, 0.83106, 1.27758, -0.369955, -1.663796, -0.449807, 0.632488, -0.169021, 0.057543, -1.685537, -1.340006, 0.061049, 0.246242, -1.619743, -0.32031, -1.764989, -0.696115, -0.99297, -0.421029, 2.389023, 0.630975, 0.728357, -0.236643, 1.465873, -1.187293, -2.952961, 0.371351, -0.26113, -0.763784], [-0.098286, -1.405677, -0.701599, -0.25564, -2.287517, -0.39383, -0.588481, -0.443254, 0.597158, 1.709767, 1.193416, -0.00634, 1.800818, 0.220519, -1.492276, -0.552334, -1.213685, 0.563829, -0.114244, -1.745303, 1.966307, 0.451204, 0.897894, 0.677736, -0.40464, 0.425541, 1.027049, -0.458497, -0.177293, 1.18514, 0.461069, 1.570183], [-0.0801, -0.166519, 0.664721, 0.399022, 1.022736, 1.390055, -0.231163, -0.37835, 0.456782, -1.362964, -2.1951, 1.605801, -0.335034, 0.012407, 0.392297, 0.954176, 1.032032, -0.974207, -0.492544, 0.346952, 1.266826, -0.466721, -0.145536, 0.465121, 1.133403, -0.550219, -0.749435, -1.282294, -0.973462, -1.090127, -1.750933, 0.104888], [1.656079, -0.865698, 0.597757, 0.737619, -1.654973, 1.186266, -0.287709, -0.322143, -1.386164, -2.450249, -1.32999, -1.059564, -0.514647, 0.091082, -1.689463, -1.157636, 0.331625, -0.875258, 0.599469, 0.80467, 0.259086, 0.510951, -0.985532, -2.189162, -0.747745, 1.664904, -1.244896, -0.251798, -0.717288, -0.231647, 0.563631, -0.149372], [1.052044, 1.184773, -0.672683, -0.045053, 0.890324, -0.725751, -0.400856, -0.228978, 1.257986, 0.122857, -0.270077, 0.85116, -1.680322, 0.184732, 0.993867, -0.450582, -0.036772, -0.052773, -0.082245, 0.613306, 0.043232, 1.117097, 0.263894, -1.210209, 0.400009, 1.363226, 0.349786, -0.563273, -0.170029, 0.670937, -0.823247, 0.978248], [0.96498, -1.165634, 1.232462, -0.571658, -0.968577, -0.374677, 0.557607, 0.125555, 1.033319, -1.860377, -0.838493, 0.365789, -0.673865, 1.114713, 0.219474, -0.56038, 0.3808, 1.358094, -0.145638, 0.209704, 0.275555, -0.386628, 0.017512, -0.393791, 0.539448, -0.267858, 2.134434, 1.276682, 1.135003, 0.336662, 0.743529, -1.58579], [1.06275, -0.157651, 0.091632, 0.627469, -0.830777, -1.634736, 0.102208, 0.798834, 0.322151, 0.630129, 0.008906, -1.044524, -1.303867, 1.475613, 0.81708, 0.931273, -0.119209, -0.730256, 1.211943, -0.636977, 0.214469, -0.643202, -1.795844, -0.813684, 2.148988, -0.318977, 0.314579, -1.313859, 0.024072, -1.764345, -0.503009, 1.240915], [0.102273, 0.785907, 0.308401, -1.292868, -0.474092, 0.493913, -0.848747, 0.328694, 0.704771, -0.809965, 0.426424, -1.031612, -0.384724, 0.111037, -0.71819, 0.609207, 1.089078, 1.435281, -0.605066, 0.212128, -0.967778, 0.123441, -0.817516, -0.664605, -0.514078, -1.560488, 0.626222, 0.571081, -1.789838, -1.374335, 0.219292, 0.823174], [0.561696, -0.307063, 0.765233, -0.042343, 0.254526, -0.135117, -0.2667, -1.087377, -0.740346, -0.147217, 0.134768, 1.669208, 0.626271, -0.473033, 0.539273, -0.43821, -1.023434, -0.126562, 1.671652, 0.920772, -1.984164, -0.823182, -0.280754, 0.225532, 1.901839, 0.332854, -1.481534, -0.071668, -0.144868, 0.156398, -1.140796, -0.252337], [-0.011175, -0.306952, 0.315897, -0.441445, -0.606137, -0.34465, 0.191998, -1.314564, -0.036554, -0.428502, 0.995142, 0.339306, 0.203407, 0.372216, 1.303042, 0.219363, -0.078672, 0.375673, -0.379845, -0.280625, 0.13617, 0.160695, -0.631116, -0.315889, 0.758155, 0.169983, -0.863051, 0.02709, 1.342087, 0.076353, 1.701063, -0.171341], [1.583064, 0.539101, -1.075946, -1.552472, 0.338331, 0.750627, -2.269796, -0.872509, -1.931483, -1.455674, -0.773528, 0.613806, 0.522689, -0.360125, 0.25737, 0.104969, 0.368816, 0.311104, -0.927741, -0.844517, 0.502441, 0.689632, -1.212337, -1.989799, 0.701603, -0.88695, 2.227915, -0.861887, 0.510012, -1.160177, 0.979791, 1.140851], [-0.681835, 2.458847, 1.173896, -0.49969, 2.125576, -1.293692, -0.181357, 0.365947, -0.268562, 1.698268, 0.433966, 0.391169, 0.909751, 0.821889, -0.363767, -0.704296, -1.101092, 1.629788, -1.411394, -0.459886, -0.049624, 0.897247, -0.412009, 0.348434, 0.814824, -0.570669, -1.127086, -0.045349, -0.775318, 0.536035, 1.730913, -0.099755], [-1.053959, 0.37321, 0.234222, 0.052171, 0.39395, 0.250886, 1.227286, 1.065645, -0.983521, 0.155182, -0.694479, -0.397899, 0.429492, 0.537767, 1.037814, -0.685584, 0.019084, -0.978229, 0.336728, -0.989493, 0.229895, -0.817011, 0.105315, -1.519582, 0.485365, 1.206512, -1.701999, 0.660483, -0.747255, -0.652622, 2.287839, -0.426918], [-2.260042, -0.756713, -0.562284, 0.492361, -0.721726, 0.558808, 1.165058, 2.007519, -0.910851, 0.16117, -0.12127, 0.328, -2.019911, -0.170919, 0.87652, 0.269904, 0.799216, -0.561419, -0.196204, -0.875551, -0.174536, -0.841529, -1.200064, 1.144461, -0.178327, 0.231979, 0.625344, -0.245004, -0.327896, 0.745871, -1.684409, 1.183798], [1.51792, 1.024161, -0.438212, 0.13195, 1.185321, 0.233571, 0.505049, -0.429807, 0.906761, -0.662817, -0.797928, -0.410858, 0.81516, -1.2328, -0.958557, -1.276679, -0.489077, -0.222061, 0.025052, 1.795979, 0.592098, 0.191757, 1.28168, 0.111785, 0.180853, 1.409735, -1.236755, -0.25751, -0.581444, 0.37079, -0.265095, 1.166608], [1.268887, 0.403837, -0.089646, 0.447922, -0.547288, -0.33392, -0.934792, 0.761956, 0.722956, -0.513559, -0.593364, -0.853378, -0.858965, 1.124884, -1.880207, -0.75038, 0.825754, 1.797322, 1.32554, -0.802431, 1.673048, -0.374027, -1.203359, 0.43839, 0.20914, -0.309434, -0.390071, 1.176836, -1.601376, -0.057738, 0.197811, -1.196939], [1.247203, 0.176301, -1.31025, 2.063451, -0.324159, -0.083838, -3.136471, 1.398509, -0.792841, -0.451194, 0.095156, -0.271186, 1.244369, 1.048518, 0.424725, -0.188223, -1.83064, -0.21914, 0.02008, -1.23612, 0.842813, -0.264791, -0.50265, -0.040051, 0.769159, 0.470506, -0.769346, -0.074496, 0.202352, -0.097864, -1.523788, -0.728341], [-0.60618, 0.552116, 0.68629, 0.193852, -1.075317, -0.158101, -2.581408, -2.113743, 0.094039, 1.398095, 0.636392, 0.533465, -0.24335, 0.114552, 0.146663, 0.693692, -0.678162, 0.747692, -0.218776, 1.113606, -0.435623, -1.643818, -0.14004, 1.243102, -0.438515, -1.558378, 1.58319, -0.431083, 0.588859, -1.041622, -1.116458, 0.534568], [0.047462, 0.223781, -1.52684, -0.242662, -0.244622, 0.253997, -0.494006, -1.148978, -0.56584, -0.711368, -0.926017, -1.048693, 0.125484, 0.703705, 0.34065, 0.98298, 0.392686, 0.580356, 1.840551, -2.459237, 0.472085, 1.762497, 1.425633, 0.882471, -1.313371, 1.130941, 0.200206, -0.799827, 1.572517, -2.331825, 0.692889, -0.172709], [-1.146456, -0.808694, 0.106079, 0.720403, 0.24835, -1.110728, 1.081506, 0.724391, 0.261297, 0.61882, -1.461154, 0.384405, -0.129338, 1.400539, 0.028046, -0.211766, -0.719991, -0.126095, 0.907688, -1.666006, 1.479393, -0.787214, -0.853116, -0.085905, -1.560008, 0.307232, -0.873006, 0.518878, 0.487598, 1.285071, 0.295974, 0.93835], [0.653989, -1.517593, 0.025549, -1.171703, 0.298266, -0.281232, -2.349651, -0.522974, 1.022783, -0.645872, -1.344213, 0.651908, 0.238035, -2.228757, -2.151733, -1.020867, 0.64027, 0.897248, 0.944607, 0.18808, -0.624461, 0.958883, -0.564274, 0.819524, -0.328192, 0.107676, -0.439623, -1.16056, 0.439607, -1.249311, 0.554359, -0.366427], [-0.205933, -0.828259, 0.025286, 0.666289, -1.02075, -0.526745, -2.093602, -0.691484, -1.921808, 0.397297, -1.372996, -1.778822, -0.243544, 0.235248, -0.691279, -0.192755, 0.044353, 0.905815, 1.230056, -0.389834, 0.161242, 0.391155, 0.54123, -1.066291, 0.762342, 0.389048, -0.159779, -0.731266, 0.109353, -0.146559, -2.285958, -1.178638], [0.519156, -0.874699, -0.354316, -0.551724, 1.215598, -0.854196, 0.249621, 0.810383, 0.94619, 1.393791, -0.360164, 0.483189, 0.09127, -1.784149, 0.05298, 0.465668, -0.106866, 0.74497, -0.054899, 1.219986, 0.470783, 1.227923, 1.959626, 0.964457, -0.714283, -1.44327, -0.553472, 0.506529, -0.84625, -0.789314, -1.932073, -0.036616]], "triple_pos": [[-1.266401, -1.167015, 0.671679, 0.395165, -0.120602, -0.950404, -0.33331, -1.145966, 0.598173, 0.08443, -1.457174, -0.314877, -0.291529, 1.221003, 0.401468, 1.285931, 1.174521, 0.816633, 0.562105, 0.358318, 0.092741, 0.604323, -0.824662, 1.880267, -0.592142, 1.398025, 0.762777, -0.795979, -0.475721, -0.930404, 0.064132, -0.554475], [-1.414615, 0.22015, 0.578357, 0.679355, 0.14521, -1.418979, 1.236544, 1.687908, -0.092153, -1.297151, 0.126223, -1.048353, 1.974286, -0.121213, -0.012757, 1.013231, 0.514899, -0.261184, -0.806202, 0.51223, 0.794081, -0.218586, -0.1, 0.631586, -0.625318, -0.367512, 0.180182, -0.251174, 0.947992, -0.675343, -0.130895, -0.36154], [-1.412326, -0.579907, 0.068283, -0.390075, 0.488405, -0.345806, 0.608512, 1.347553, -1.736357, 1.061142, -0.188844, -0.843436, -0.424188, -0.515749, 0.47107, 0.326198, -1.835669, -0.503734, 0.044972, 2.086598, -1.184823, -0.541926, -2.157558, -1.056368, -0.843107, -0.3076, 1.272197, 1.482139, 1.422851, 0.406819, 1.192089, 0.534509], [-1.061141, -1.175605, -0.407524, 1.229677, 2.078429, -0.935224, -0.19512, -0.127874, 0.54109, -0.195491, 0.952248, -0.046543, -0.548057, 0.252253, -0.602415, -1.208751, 1.735648, 0.874377, -0.183184, 0.106121, 0.886313, 0.314999, -1.086366, 1.660873, -0.438189, 0.948336, 0.4013, 0.304017, -0.126504, 0.603234, -1.018004, -0.108878], [0.414313, 1.288163, -0.078085, -1.490684, 0.6137, 0.454488, 0.745428, -0.802312, -0.379017, -0.473777, -0.553862, -0.200339, 0.041609, -0.072378, -0.783153, -0.155175, -0.150723, 0.180997, -1.030128, -1.33286, 0.925603, -1.389158, -0.906592, -0.10387, 1.477727, 0.652782, -0.467471, 0.136679, 0.203213, -0.906039, -1.6688, -0.072143], [-0.544995, -0.645446, 0.53426, 0.179568, -1.27257, 0.001661, -0.250257, -0.354744, -0.010862, 0.351111, -0.939671, -1.289361, 0.630871, -0.474041, 0.088569, 0.426344, 0.984707, -1.855644, -0.87745, -1.28054, 0.24037, 0.57664, 0.279763, 1.288339, 0.190422, -0.201608, 0.03521, 1.269442, 0.028454, -2.04756, -0.460968, 0.594967], [-0.05854, -0.148962, 0.208247, 1.030638, -0.141852, 0.432093, 0.693561, -0.036114, 0.353045, 0.821774, -1.683262, -0.728444, 0.052586, -1.44722, 1.818158, 0.890482, -1.052069, -0.008222, 1.152216, 0.881901, 0.714689, 0.935373, 1.802896, -0.10177, 0.844244, -0.73757, 1.610509, 1.170785, -0.124435, -0.734946, -0.099207, 2.020537], [-0.383068, 0.154181, -0.769444, -1.509665, -0.415646, 0.172509, 0.532681, 0.559348, 0.995385, -0.53197, -0.663618, -0.145648, 0.588953, -1.650625, 1.169293, 1.692467, -0.631855, 1.188526, 1.245614, 0.421302, -0.098945, 1.653976, -0.200138, 0.083047, -0.36345, -0.0188, 0.282656, 0.648511, 1.361138, -0.372801, 0.099562, -0.114042], [-2.441253, -0.416718, -1.04487, -1.071857, -0.94274, -0.486437, -0.408754, 2.359003, 0.045532, 0.368665, 1.444258, -0.253086, 0.65058, -0.289388, 0.631565, -0.287454, 0.245226, 1.002398, 0.584603, 0.111977, 0.171954, -0.549219, -1.016882, 0.488197, 1.183703, -0.241463, -0.36394, 0.148106, 0.404634, -1.32169, -0.664397, -0.225042], [-1.759706, 0.237811, 0.393715, -0.248024, -2.030981, 0.085553, 0.42174, 0.924348, 0.181959, 0.578014, -0.623954, -0.22528, 0.065444, -1.337678, -0.986126, 0.975801, 0.652618, -0.364231, -2.372404, -0.875365, 0.654339, -0.742503, -0.27789, -0.156548, 1.133642, -0.940052, 0.240719, 0.284943, -1.157357, -1.072175, 0.376486, -0.568316], [-1.268476, -0.229606, -0.526841, -0.962416, -0.681185, -0.607144, -2.009614, 1.110444, -0.446886, 0.307473, 1.624296, -0.262028, -0.329109, -0.864028, -0.418859, 0.139912, 0.182886, 1.53062, -1.829759, -1.024679, 0.374378, 0.852811, 0.0221, -1.394881, 0.063733, 0.371393, -1.057277, -0.265559, -0.765409, -1.409733, -0.467869, 0.719104], [1.013166, -0.940002, 0.18866, 1.311814, 0.865519, -0.136551, -0.574997, 0.598893, 0.64903, -0.884023, 1.007, 1.547927, 1.317381, -0.018164, -0.26571, 0.758102, 0.232967, 2.278265, -1.98781, -0.616367, 1.992594, -0.372854, -1.070514, 0.204745, -0.120761, 1.764035, 0.460715, -1.349795, -2.182998, -0.643062, 0.6472, 1.468441]], "role": [[-0.234572, -1.48065, 1.455225, 1.552769, 1.437906, -0.133333, 0.58711, -0.493658, -0.889137, 0.347231, 1.647866, 1.70055, 1.106119, 0.440778, 2.192394, 0.43212, 1.734193, 0.798618, 0.253364, -1.075169, -0.53559, -0.886697, -0.116487, -1.100214, -0.085721, 0.840216, 2.068164, -1.797947, 0.394934, 0.764424, 0.288651, -0.917934], [1.609181, 1.239709, -0.097136, 1.007009, -0.636362, 0.124633, 0.362966, 0.894045, 1.622878, 0.701998, -0.59587, -0.470955, -1.729994, 0.17733, 0.63722, -0.42452, 0.122351, 0.194895, -1.779683, -0.485055, 0.470343, -1.942406, -0.020042, 1.26508, -0.604503, -1.0524, 1.62398, -0.981221, -1.246939, -0.121252, 0.712574, -1.022213], [0.642475, -0.239765, -1.119641, 0.182968, -0.634169, -1.299669, 1.79206, -0.754018, -0.110082, -0.505734, -0.353406, -0.345413, -0.163487, -0.309764, -1.178126, -1.021495, -0.699036, -0.866988, -0.845848, -1.206913, -1.887778, 0.071009, -1.83795, 0.148885, -0.128191, -0.223838, -0.084437, -0.710584, -0.665519, 0.042977, 0.661137, 0.358697]]}, "layers": [{"norm1_weight": [1.146619, 1.104717, 1.169712, 1.174295, 1.261489, 1.002698, 0.90596, 1.189036, 1.051851, 1.174845, 1.256998, 1.152724, 1.07715, 1.186351, 1.121664, 1.152854, 1.11359, 1.134392, 1.256775, 1.012055, 1.049216, 1.171195, 1.07645, 1.085766, 1.088644, 1.20829, 0.98221, 1.087879, 1.229647, 1.174846, 1.047044, 0.997123], "norm1_bias": [0.048762, -0.067629, 0.051045, -0.070938, 0.057819, 0.072166, -0.120121, 0.020771, -0.033116, -0.033741, 0.001489, -0.029219, -0.008373, 0.009755, 0.053306, -0.015862, -0.055594, -0.039533, 0.070277, 0.043174, 0.00152, -0.068554, 0.082411, -0.065429, 0.007536, -0.022207, -0.026174, 0.006572, 0.035736, 0.016791, -0.118782, -0.018383], "attn_in_proj_weight": [[0.431379, 0.261109, -0.002645, 0.03908, 0.131985, 0.089638, 0.075389, -0.129767, -0.060077, -0.0748, -0.292579, -0.073386, 0.168799, 0.04072, -0.107864, -0.367096, -0.212605, -0.459168, -0.347103, -0.265777, 0.19778, -0.170836, 0.22571, 0.209815, 0.146041, -0.141225, 0.003819, 0.372917, 0.024412, -0.31925, -0.167611, -0.091842], [-0.007693, -0.244853, -0.22001, -0.033408, 0.256908, -0.154431, 0.172073, -0.041028, 0.135025, -0.272639, 0.131159, -0.207923, -0.042872, 0.200474, -0.442013, -0.069869, 0.091709, 0.520943, -0.057559, -0.174131, -0.083139, -0.008267, -0.118114, 0.327276, 0.013926, 0.294981, -0.261555, -0.199166, -0.072982, 0.022775, -0.06787, 0.167504], [0.246924, 0.036513, 0.175563, -0.418758, -0.146915, 0.104885, 0.054143, -0.724784, 0.32793, 0.072284, -0.594767, 0.065743, -0.115142, -0.052008, 0.092338, -0.022807, 0.020542, 0.029055, 0.166773, -0.604763, 0.036669, -0.117771, 0.161848, -0.054393, 0.240498, 0.059556, -0.21596, -0.035194, -0.009487, -0.507309, -0.203869, -0.077467], [-0.080009, 0.083071, -0.078121, -0.09862, -0.33379, -0.021715, -0.044526, -0.163966, 0.321186, 0.34841, -0.41985, 0.212274, -0.051146, 0.008785, 0.063156, 0.392985, -0.243038, 0.121582, -0.254184, -0.004222, 0.12156, 0.371636, -0.048577, -0.178305, 0.285714, 0.024772, 0.122875, -0.29192, -0.18252, -0.131442, 0.076491, -0.078433], [0.027162, 0.289548, -0.068734, -0.022131, 0.296466, 0.343802, 0.108035, -0.053799, -0.356969, -0.116404, 0.034577, 0.054212, -0.280285, 0.068139, -0.01261, -0.100081, 0.144719, -0.27555, -0.28716, 0.007104, 0.020135, -0.223478, 0.032546, -0.004251, 0.189067, 0.151424, 0.234254, 0.15187, 0.152791, 0.010445, 0.064574, -0.056086], [-0.105697, -0.114057, 0.104612, -0.063855, -0.232873, 0.067416, -0.032674, -0.245246, 0.318419, 0.31997, -0.291698, 0.118083, -0.063043, 0.061543, 0.138704, 0.037869, -0.140484, 0.242397, -0.164146, -0.003675, 0.096442, 0.353614, -0.218638, 0.059241, 0.081235, 0.099348, 0.289738, 0.029295, -0.379817, -0.124242, 0.065845, 0.048858], [0.262895, 0.243102, 0.060244, -0.164119, -0.14166, 0.130898, -0.240005, -0.340227, -0.18763, 0.171399, -0.022461, 0.252744, -0.084119, -0.138474, 0.013828, 0.098102, 0.204005, -0.185483, -0.010255, -0.154153, 0.057154, -0.064573, 0.075625, -0.035031, 0.371274, 0.211525, -0.023887, 0.181543, 0.088636, -0.485748, 0.043663, -0.2862], [-0.033768, -0.263973, -0.000384, -0.261807, 0.203961, 0.10724, -0.24775, -0.094099, -0.199176, 0.163767, 0.30393, 0.371947, -0.155973, 0.380352, -0.099488, -0.020058, 0.104388, 0.184865, -0.07596, 0.183797, -0.183358, 0.030274, -0.335722, 0.159443, -0.088903, 0.324752, -0.110786, 0.135742, 0.038799, 0.142354, -0.307449, -0.291792], [0.176894, 0.033126, -0.055613, 0.548895, 0.24795, 0.331224, -0.051669, -0.155956, -0.096613, -0.009652, -0.126978, -0.003838, -0.084747, -0.144165, -0.054515, -0.120709, 0.220442, -0.322435, -0.036071, 0.185788, 0.24319, -0.003645, 0.284184, 0.07476, 0.027045, -0.096409, 0.040543, 0.193942, -0.182018, -0.092883, -0.257198, 0.077852], [-0.430442, -0.133093, 0.188755, -0.18366, -0.174714, 0.166072, -0.286721, 0.132081, -0.146235, 0.253167, 0.112956, 0.312987, -0.150827, -0.018717, 0.343808, 0.111133, -0.012233, 0.152331, -0.049183, 0.200066, 0.147055, -0.004801, 0.177774, -0.060064, -0.032962, -0.175577, 0.108414, -0.044148, -0.371796, -0.206316, -0.114768, -0.205091], [-0.040368, -0.388858, -0.279614, 0.316238, 0.338267, -0.042703, 0.106345, 0.187666, 0.079703, 0.147657, 0.483156, -0.237581, -0.048303, -0.124366, -0.264076, -0.166669, -0.142801, -0.086579, 0.099719, 0.027282, -0.039401, 0.179974, -0.081163, 0.077705, 0.184778, -0.071058, 0.206613, 0.099284, -0.241576, 0.088711, 0.070028, 0.4035], [-0.405241, 0.039691, 0.338503, 0.043001, -0.178806, -0.213621, -0.013777, -0.242127, 0.105891, -0.250393, -0.408445, 0.044791, 0.313951, 0.052253, -0.143455, 0.049321, -0.02357, 0.071469, -0.237338, 0.102248, 0.073411, -0.313976, 0.188336, 0.054223, -0.180836, 0.43328, -0.146474, -0.129181, -0.076936, -0.200877, 0.018988, 0.119036], [-0.318361, -0.160348, 0.053358, 0.103255, -0.015996, -0.041613, -0.122427, 0.284982, 0.149665, 0.108721, 0.147561, -0.263258, 0.376278, -0.322117, -0.118477, 0.164388, 0.02132, 0.050463, 0.233638, 0.111578, 0.023436, 0.005401, 0.169257, 0.181858, -0.525681, -0.164476, 0.106783, -0.244425, -0.165295, 0.329259, 0.138972, 0.023556], [-0.377348, -0.214433, 0.183243, 0.382257, 0.002011, 0.071461, -0.119782, 0.098688, 0.250284, -0.063356, 0.064245, -0.011592, 0.012148, -0.011945, 0.068669, -0.028678, 0.264292, -0.169658, -0.154621, -0.038088, 0.155748, -0.034345, -0.158196, 0.268, -0.312336, 0.11719, 0.306168, 0.110557, -0.318996, 0.005642, -0.352243, -0.100696], [0.180193, 0.082021, 0.110856, 0.184777, 0.205379, -0.211917, -0.191753, 0.305872, 0.054335, -0.152916, -0.052503, -0.227794, -0.206568, 0.209747, -0.120939, -0.274963, 0.148828, -0.137167, -0.454207, -0.127743, 0.211664, -0.0899, -0.256476, 0.343397, -0.220217, -0.37056, 0.154006, -0.024089, 0.299431, -0.00905, -0.079085, -0.100652], [-0.180921, -0.176165, 0.175182, 0.09366, -0.157222, 0.018069, 0.107651, 0.1824, 0.025765, 0.30135, -0.151813, -0.025647, -0.226549, 0.135744, -0.0561, -0.117427, -0.146729, -0.276626, -0.211576, 0.386763, -0.202713, -0.038686, -0.354616, 0.27876, -0.079407, 0.307442, 0.017269, 0.180353, -0.074158, 0.106636, 0.221553, 0.063699], [0.175187, 0.114781, -0.070686, 0.144654, -0.160211, -0.01954, 0.21514, 0.193354, 0.153081, -0.123738, -0.310025, 0.088093, 0.289897, -0.282768, 0.149851, -0.197403, 0.240838, 0.257464, -0.135456, -0.126905, 0.007516, 0.08011, 0.27768, -0.224358, 0.137292, -0.084739, -0.216829, -0.048085, 0.032477, -0.223791, 0.032901, -0.127671], [0.24251, 0.092665, 0.200513, 0.258238, -0.185556, 0.064208, -0.075932, 0.248628, 0.064816, -0.318643, -0.265565, -0.11585, 0.063013, -0.071093, -0.050941, -0.186995, 0.077124, -0.370501, 0.243518, -0.077424, 0.038662, 0.268753, -0.008867, -0.036126, -0.046063, -0.106449, -0.179433, 0.344377, 0.06317, -0.128006, -0.037485, -0.11096], [-0.071191, -0.229975, 0.24566, 0.127444, -0.403804, -0.267591, 0.145227, 0.090985, 0.191694, 0.227766, -0.171241, -0.147087, -0.394661, 0.22579, -0.28297, -0.198749, -0.04691, -0.28758, -0.078193, 0.271325, 0.098305, -0.048035, -0.169581, -0.015855, -0.351657, 0.138781, 0.021207, 0.032554, -0.00808, 0.132085, 0.278805, 0.08934], [-0.189747, 0.229445, 0.069476, 0.111945, 0.188123, 0.040985, -0.16115, -0.019124, -0.022648, -0.159565, 0.034387, -0.324115, 0.253418, -0.019013, -0.060939, -0.026693, 0.219258, -0.074694, -0.13808, -0.041, 0.022022, 0.192741, 0.023775, 0.17877, 0.011575, 0.021749, -0.34303, 0.25471, 0.065421, 0.13306, -0.082915, -0.159405], [-0.090711, 0.054607, -0.104526, 0.224023, 0.1223, -0.118398, -0.020712, 0.4041, -0.115522, 0.190256, 0.306622, 0.184039, -0.218878, 0.103149, 0.009471, -0.204133, -0.026495, -0.11482, -0.301436, 0.109473, -0.230057, -0.095931, -0.344552, -0.260657, 0.208146, -0.239778, 0.10352, -0.040944, 0.183632, 0.151996, 0.116531, -0.053029], [-0.16198, -0.2779, -0.15763, 0.276744, 0.144352, -0.216915, 0.075852, 0.223671, -0.154079, -0.145189, 0.42232, -0.280582, 0.280972, -0.142115, -0.211107, -0.173008, 0.039067, 0.264586, -0.247466, 0.187368, 0.107832, -0.130504, -0.169506, 0.114094, -0.275979, -0.170399, 0.135557, 0.109826, 0.152463, 0.39025, -0.189636, 0.228158], [0.305075, -0.029465, -0.019968, -0.242631, 0.082313, -0.158608, -0.070471, 0.058151, 0.220527, -0.040915, -0.085663, 0.082003, -0.133647, 0.104997, -0.261498, -0.024487, 0.07256, 0.110028, -0.003209, -0.008931, 0.143194, -0.114021, -0.008682, -0.156182, 0.016324, 0.031116, -0.064076, 0.141458, -0.308794, 0.307274, 0.068474, -0.18665], [0.288154, -0.008063, -0.095654, 0.115471, -0.039673, -0.111875, 0.118501, -0.061357, -0.000891, 0.183885, 0.072925, -0.073824, -0.147701, -0.042123, -0.095362, -0.12286, -0.249755, -0.112787, -0.013716, 0.135978, 0.0304, -0.079823, -0.182134, -0.013025, 0.18086, -0.219771, 0.318042, -0.153973, -0.262099, 0.033575, -0.100136, 0.164275], [0.162191, 0.25358, 0.154712, -0.063299, -0.471572, -0.037926, -0.238911, -0.215681, 0.06134, 0.296226, -0.102176, 0.12592, -0.188561, -0.345714, 0.132356, 0.356145, 0.044058, -0.178045, -0.02793, 0.047128, 0.10419, 0.360228, 0.046628, -0.077075, 0.197715, -0.190424, -0.10333, -0.130717, -0.160628, 0.046651, 0.054193, -0.02268], [-0.124541, -0.08682, -0.263966, 0.026242, -0.461548, 0.088802, 0.135856, -0.052369, 0.202036, 0.224527, 0.108613, -0.185369, 0.180651, -0.124777, 0.094951, 0.175537, -0.341034, 0.102948, -0.039794, -0.211907, -0.122621, -0.004048, -0.062482, 0.201728, -0.029615, -0.003986, 0.122705, 0.141856, -0.242154, 0.215348, 0.162071, 0.273384], [0.038445, 0.153938, 0.059191, 0.033014, -0.251864, 0.316747, 0.112427, 0.277174, -0.146812, -0.298663, 0.281874, -0.063428, 0.261685, -0.209461, -0.189301, -0.236179, 0.280422, -0.025855, -0.230881, -0.248704, -0.20198, -0.151677, -0.093551, 0.22509, 0.003283, -0.084582, -0.314897, 0.189019, 0.183207, 0.094345, -0.151602, 0.042662], [-0.053819, -0.16993, 0.258932, 0.299937, -0.143229, -0.201914, -0.188772, 0.246423, 0.163884, 0.229498, -0.210432, 0.148779, -0.010698, 0.196854, 0.011185, -0.049136, -0.092603, -0.263713, -0.040609, 0.141732, 0.215247, -0.055795, -0.232853, -0.039198, -0.439813, -0.139531, 0.039429, 0.071489, 0.122486, -0.152143, -0.038025, -0.076231], [-0.049374, 0.243024, -0.081925, 0.153517, 0.20057, 0.253843, 0.060261, -0.293019, -0.075323, -0.189034, -0.03088, 0.145106, -0.027922, -0.29302, 0.406325, -0.072962, 0.051873, -0.088206, -0.154295, -0.223078, 0.040617, 0.115486, -0.022608, -0.058877, 0.207681, -0.227897, -0.024379, -0.056976, 0.051508, -0.144309, -0.176894, -0.080649], [-0.135295, -0.025037, 0.043859, 0.348362, 0.066691, 0.050509, -0.139104, 0.039933, -0.10177, -0.006303, -0.183371, 0.224497, 0.05861, 0.052448, -0.125088, 0.057842, -0.044607, -0.047088, 0.128078, 0.376993, 0.027605, 0.005304, -0.143459, -0.121131, -0.233683, 0.189858, -0.238675, -0.080688, 0.071954, 0.097684, 0.054526, -0.283429], [0.248694, -0.070026, -0.100458, 0.149855, 0.073332, 0.206881, 0.035728, 0.009359, -0.028365, 0.209018, 0.193702, -0.000176, 0.11861, -0.379564, -0.022536, 0.026307, -0.207596, -0.136064, -0.187319, -0.321444, -0.085309, -0.043096, -0.061378, -0.196599, 0.236745, -0.110187, 0.197894, 0.261803, -0.140815, -0.146877, -0.233581, 0.101065], [0.200085, 0.105742, 0.073229, -0.136018, 0.212217, -0.15503, 0.317366, -0.310248, 0.067315, -0.327613, -0.183842, -0.093058, 0.224808, 0.110021, 0.143221, -0.261805, 0.049686, 0.016252, 0.211973, -0.33212, 0.021256, -0.037269, -0.070486, -0.099421, 0.190843, 0.097047, 0.107724, -0.342922, -0.070364, -0.131382, -0.060151, 0.228973], [0.298321, -0.030178, -0.378551, -0.152303, -0.086339, 0.300471, 0.024162, -0.095911, 0.039542, 0.126432, -0.233253, 0.099259, -0.230075, -0.23706, 0.186672, 0.241328, -0.272518, -0.172055, -0.116274, 0.184773, -0.11527, 0.280209, 0.402972, 0.122776, -0.257909, -0.285368, 0.090841, -0.055245, -0.247141, -0.230518, -0.058497, 0.098961], [-0.083645, 0.325879, 0.150363, -0.073039, 0.030825, -0.186707, 0.261329, -0.176293, -0.219594, -0.078474, 0.061946, -0.155266, 0.237647, 0.257061, -0.167952, 0.107205, -0.156762, -0.183124, -0.14619, -0.154326, 0.068667, 0.048663, -0.040602, -0.033535, 0.365556, 0.138101, -0.236008, 0.363267, 0.001592, -0.227017, 0.094532, -0.044144], [0.086191, -0.139063, -0.177768, 0.322182, -0.669274, 0.159991, -0.115388, -0.091612, -0.031038, -0.013086, -0.030943, -0.37979, 0.058536, -0.337097, 0.385794, 0.309738, -0.030938, -0.145089, 0.418765, 0.063913, 0.019322, 0.336344, 0.627103, -0.084027, 0.268083, -0.004496, -0.188319, -0.288487, 0.269971, -0.222923, -0.109203, -0.139627], [-0.127991, -0.016076, -0.190451, 0.132408, -0.413002, -0.029814, -0.281871, 0.386923, -0.031071, -0.245686, -0.124503, -0.224623, -0.007776, -0.140341, -0.138508, 0.286343, 0.105419, 0.347122, 0.00606, -0.069918, 0.093725, 0.209966, -0.061894, 0.139268, 0.014395, 0.121574, 0.107854, -0.232045, -0.107565, -0.020611, -0.277319, -0.163728], [0.037215, 0.013847, -0.048811, 0.119719, 0.305941, 0.281804, -0.194833, -0.18109, -0.113355, 0.22951, -0.173543, 0.179529, -0.233862, -0.047044, 0.039699, -0.084036, 0.081557, -0.301786, 0.142013, -0.18401, -0.062721, 0.013866, 0.1395, 0.090832, -0.21429, 0.007966, 0.118511, -0.142183, -0.278289, -0.265023, 0.134974, -0.003188], [0.065794, 0.288601, 0.146779, 0.16905, -0.316966, -0.010994, -0.290076, 0.245206, -0.116704, -0.320445, 0.006309, -0.028534, 0.079336, -0.03981, -0.207323, 0.174068, 0.011569, 0.175517, 0.042049, -0.007254, -0.018991, 0.150725, 0.032123, 0.159577, 0.263375, -0.170247, -0.114072, -0.289256, -0.139021, -0.04509, -0.458961, -0.139882], [-0.049759, -0.046539, -0.114938, 0.153357, -0.217342, 0.235433, -0.242485, -0.108379, 0.318228, -0.00496, -0.017486, 0.188079, -0.190003, -0.03624, 0.342959, 0.204742, -0.011178, -0.148051, 0.223839, -0.244252, -0.053684, -0.05129, 0.467422, 0.131314, -0.005854, 0.171631, 0.020163, -0.213301, 0.001611, -0.000733, -0.145622, 0.125522], [0.146525, -0.114357, 0.208615, 0.22131, 0.34498, 0.195182, -0.215673, -0.440032, -0.129909, -0.32252, 0.068792, 0.08339, 0.168266, 0.22816, -0.035664, -0.163886, 0.014688, -0.146746, 0.04559, -0.349717, 0.250495, -0.238764, 0.02791, 0.027933, 0.008674, -0.003695, 0.033767, 0.02513, 0.009948, -0.088181, 0.066313, 0.003918], [-0.038963, 0.072135, 0.195556, -0.053689, 0.318152, 0.281706, -0.13306, -0.381579, 0.080426, -0.099168, -0.211799, 0.260281, -0.120872, -0.350571, 0.091116, 0.257975, -0.389336, 0.025843, -0.154957, 0.064027, -0.128286, 0.032058, 0.219737, -0.394375, -0.105993, -0.085257, 0.221519, -0.028525, -0.164588, -0.056641, 0.060254, 0.038135], [-0.178823, -0.054775, 0.290946, -0.064422, 0.183282, 0.216, -0.085325, -0.216437, 0.080271, -0.291145, 0.181313, 0.023489, 0.053065, 0.026753, 0.2972, 0.225715, 0.159767, 0.098889, -0.013777, 0.097764, 0.360435, -0.435906, 0.002024, -0.130613, -0.078189, 0.025187, 0.133489, -0.429599, -0.03816, 0.077119, -0.189236, -0.182546], [-0.120939, 0.373464, 0.135157, -0.450991, 0.330222, -0.373486, 0.094429, -0.20219, -0.000857, 0.28926, -0.119425, 0.042813, -0.12014, 0.00072, -0.302975, -0.052295, -0.002975, 0.291662, -0.06062, -0.141444, -0.115219, 0.082441, -0.36099, 0.15441, 0.312978, 0.122529, -0.26067, 0.10361, -0.159936, -0.107587, -0.035567, 0.049978], [-0.080815, 0.313112, -0.122933, 0.318831, 0.105014, 0.028306, -0.040225, 0.130715, -0.50123, -0.094042, -0.076432, -0.268647, 0.317118, 0.113103, 0.151507, 0.051066, -0.068886, -0.417695, 0.001138, 0.121509, -0.213896, 0.15656, 0.189143, -0.291723, -0.232585, 0.24776, 0.216475, 0.042121, 0.240853, 0.188595, -0.068522, 0.020154], [0.016051, 0.242372, 0.026155, 0.02732, 0.313262, -0.197444, 0.035552, 0.234758, 0.072482, 0.008931, 0.382684, 0.108614, 0.012697, 0.2693, 0.015066, 0.131866, -0.216524, 0.193142, -0.084217, 0.052959, -0.082551, -0.252171, -0.550416, -0.333663, 0.15624, 0.040912, 0.059436, -0.219926, 0.418512, 0.400498, 0.11451, -0.111002], [0.26207, 0.198943, 0.257111, 0.174967, 0.236526, 0.077294, 0.019308, 0.071177, -0.285871, 0.054845, 0.009927, 0.269204, -0.067864, -0.032269, 0.16263, 0.01402, -0.27446, 0.202817, -0.38676, -0.026311, 0.074336, -0.333835, 0.171026, -0.106969, 0.047037, 0.088507, 0.132297, 0.032074, 0.232755, 0.217537, -0.129613, -0.135881], [0.414808, 0.172981, 0.012403, -0.071195, 0.158741, -0.004125, -0.119713, 0.103198, -0.177626, 0.185077, -0.02191, 0.218265, -0.198526, 0.195351, -0.28653, -0.029123, -0.211698, -0.278027, -0.407293, 0.236698, 0.093004, -0.263747, 0.198965, 0.15109, -0.202346, -0.373935, 0.162229, 0.19135, -0.095266, -0.057578, 0.171098, -0.122884], [0.258449, 0.04895, -0.067871, 0.413463, 0.211939, -0.326861, -0.082374, 0.162447, 0.194455, -0.059596, -0.149469, -0.114568, 0.094864, 0.076871, -0.231049, -0.1317, -0.015845, -0.050483, -0.30549, -0.167885, -0.00287, 0.09441, -0.244716, 0.013253, -0.113259, -0.089556, -0.239291, -0.169559, -0.125888, 0.25719, -0.218482, -0.014386], [0.183413, -0.0624, -0.269176, 0.133363, -0.346442, 0.072856, 0.178124, 0.256199, 0.314286, -0.37593, -0.00984, 0.174597, -0.239034, 0.264997, 0.033836, -0.202606, 0.231773, -0.211737, 0.147976, 0.087017, 0.3223, -0.184617, 0.128087, -0.261314, 0.066622, -0.055576, -0.159313, -0.003393, 0.071134, -0.154603, -0.265214, 0.060747], [-0.047561, -0.212855, -0.314459, 0.099108, -0.013565, 0.073899, 0.204439, 0.243494, 0.245626, 0.106675, 0.278112, -0.01311, -0.30358, -0.093178, 0.067234, -0.315992, 0.077456, -0.141402, 0.084513, 0.180299, 0.175358, 0.03401, -0.411126, 0.058461, -0.17549, -0.066932, 0.151529, -0.054227, 0.107183, 0.1765, -0.05351, 0.305911], [-0.286048, 0.242355, -0.011513, -0.01665, 0.223888, -0.241061, 0.186349, 0.156107, 0.105429, 0.146737, 0.175506, -0.096859, 0.265014, -0.047695, -0.206758, -0.280438, -0.037373, -0.020579, -0.258953, 0.001788, -0.192866, -0.011521, -0.110041, 0.420759, -0.121556, -0.08233, -0.094088, 0.094804, -0.039814, 0.173818, -0.155367, 0.033551], [-0.089285, -0.201736, -0.018771, -0.197277, -0.254035, -0.03972, 0.054955, -0.103952, -0.103451, -0.114552, -0.113428, 0.078114, -0.223376, 0.283982, -0.000203, -0.015142, -0.068455, -0.004813, 0.185924, -0.056377, -0.007799, -0.241489, -0.39151, -0.025911, -0.140986, 0.130378, -0.00652, -0.006413, 0.18444, 0.111443, 0.016396, 0.005507], [-0.04319, 0.161165, 0.193376, -0.005042, 0.422011, -0.056988, 0.099185, -0.244391, 0.055379, 0.476694, 0.133394, -0.126179, -0.267977, 0.022565, 0.15864, -0.172998, -0.08813, -0.019094, -0.354905, -0.164656, -0.134069, 0.12237, 0.220432, 0.231166, 0.358917, -0.153142, 0.195365, 0.139267, -0.359778, -0.333659, 0.000418, -0.217967], [0.096501, 0.079239, 0.128272, -0.34259, 0.050052, -0.01783, -0.393728, -0.255698, -0.076346, 0.425046, 0.034355, 0.286805, -0.238486, 0.229068, -0.311458, 0.031036, -0.09416, -0.165724, -0.168841, -0.02507, -0.154466, -0.104578, -0.005515, 0.290543, 0.172425, 0.296746, -0.019036, 0.079631, 0.11734, -0.125182, 0.147454, 0.170349], [0.106746, -0.202194, 0.112309, 0.338978, 0.080895, 0.003337, 0.27596, -0.151175, 0.070386, 0.019176, 0.194152, 0.168469, -0.01756, -0.063003, -0.181669, -0.063159, -0.127201, -0.246017, 0.197455, -0.161465, 0.10281, 0.06815, -0.143323, -0.053558, 0.10664, 0.172666, -0.219936, 0.117897, -0.011776, 0.029131, -0.065296, 0.280751], [0.099462, -0.110928, -0.178206, -0.249875, 0.115157, 0.104707, -0.053102, -0.061935, 0.044708, 0.118914, -0.002637, 0.225101, -0.1683, -0.03109, -0.151803, 0.168754, 0.127389, 0.236479, -0.16034, 0.064764, -0.159699, 0.181186, 0.171389, 0.273921, -0.087751, -0.374889, -0.046128, -0.06163, -0.219612, -0.290272, -0.006494, 0.126188], [0.168256, -0.346439, -0.064151, 0.002449, 0.042707, -0.054695, -0.178817, 0.157313, 0.198467, -0.143585, 0.070918, -0.130637, 0.252797, -0.398784, -0.007715, -0.073843, 0.029809, 0.297034, 0.20626, 0.311825, 0.120201, -0.047366, -0.172367, -0.151706, 0.09366, -0.182907, -0.13544, 0.06241, -0.183742, 0.118697, -0.277832, -0.09869], [0.001233, 0.075018, 0.062981, -0.255282, 0.012112, -0.048836, -0.332649, 0.072152, 0.164053, -0.086525, 0.056551, 0.145776, 0.198266, 0.018884, -0.331537, 0.104784, 0.474447, 0.151559, -0.085017, 0.052891, 0.062042, 0.081643, 0.013008, 0.221607, 0.278646, 0.029949, -0.13157, 0.015529, -0.144081, -0.124227, -0.261948, -0.146681], [-0.124939, 0.13108, -0.199068, -0.177125, -0.227737, 0.368602, -0.140505, -0.239291, -0.013482, 0.095859, -0.171464, -0.184911, -0.39281, 0.304325, 0.234919, -0.050677, 0.001361, 0.152373, 0.153962, -0.147834, 0.178881, -0.130296, -0.245547, 0.126654, 0.121739, 0.421804, -0.100608, -0.138088, 0.011884, 0.047078, -0.397933, 0.296665], [-0.001841, 0.175182, 0.026959, -0.212689, 0.094898, 0.071963, 0.209743, 0.155812, -0.064297, 0.214386, 0.078382, -0.096948, 0.173464, 0.045006, -0.070061, -0.374616, -0.057927, -0.026042, -0.447682, 0.443571, -0.195755, -0.156622, 0.05469, 0.090906, 0.043655, -0.159617, 0.051108, 0.110092, -0.09433, 0.319407, 0.007629, 0.153368], [0.043128, 0.004874, -0.093685, -0.19071, -0.06806, 0.011044, 0.018862, -0.022338, 0.256722, -0.171403, -0.268774, -0.015744, -0.294125, -0.162142, 0.314909, 0.129484, 0.036576, -0.046842, 0.324877, -0.212823, 0.030866, -0.09699, 0.104337, -0.068886, -0.077698, 0.045607, -0.007925, -0.051227, -0.008406, -0.070484, 0.066096, -0.05199], [-0.01982, 0.111199, 0.168771, 0.127137, 0.270273, -0.015146, 0.292276, -0.112434, -0.061561, -0.198477, -0.035204, 0.133487, -0.107859, 0.068055, -0.062893, 0.038378, -0.061035, -0.231159, -0.253872, 0.064287, 0.049396, -0.385124, -0.065719, -0.183666, -0.278626, 0.091481, -0.025405, -0.113913, -0.153823, 0.283004, -0.096616, 0.355912], [-0.020845, -0.08443, -0.033332, -0.06096, 0.029745, 0.25526, -0.23673, -0.007924, 0.248587, 0.288032, -0.076464, -0.085542, -0.189321, -0.212698, 0.170156, 0.050156, 0.143122, 0.238729, 0.1184, -0.174906, -0.010778, 0.213734, 0.042137, 0.168697, 0.145488, -0.257648, 0.019406, -0.121854, -0.175608, -0.264672, -0.132193, -0.146813], [0.208027, 0.326257, -0.364902, 0.096684, -0.147757, 0.138163, 0.048499, 0.089703, 0.054607, -0.079878, -0.304253, 0.069257, 0.015886, -0.102361, 0.019393, 0.229965, 0.271328, 0.055242, 0.11656, -0.209207, -0.162541, 0.179042, 0.090815, 0.193422, -0.22091, 0.051112, 0.122936, -0.079406, 0.256955, -0.303909, 0.250688, -0.173169], [0.129584, -0.30126, 0.063269, -0.071601, 0.196347, 0.076212, -0.043305, 0.076655, 0.137516, -0.198546, -0.144922, 0.329798, 0.194787, 0.010231, -0.228165, -0.140581, -0.254311, -0.027988, 0.140164, 0.201436, -0.280106, 0.105693, -0.155191, 0.249768, -0.001522, -0.142613, 0.090453, -0.371588, -0.168602, -0.240308, -0.228604, 0.121595], [0.239197, 0.050934, 0.209512, 0.055975, -0.162615, -0.114524, 0.044001, 0.18477, 0.043543, 0.265471, -0.043074, -0.211015, 0.267173, 0.175009, 0.168688, -0.068557, -0.270828, 0.184841, 0.176918, 0.149934, -0.164058, -0.220253, 0.020051, 0.242353, 0.204054, -0.03561, -0.185959, 0.085057, -0.146521, 0.128073, -0.259825, -0.18904], [0.014191, 0.174113, -0.234468, -0.044227, 0.208213, 0.069143, 0.096471, -0.000385, -0.240468, 0.187718, 0.382035, 0.022076, 0.25033, 0.013573, 0.050314, 0.132772, 0.147758, -0.161399, -0.29016, 0.036608, -0.017345, -0.068511, 0.154774, 0.158046, -0.043994, -0.208041, -0.224634, -0.082393, 0.006518, -0.370766, 0.161805, 0.092673], [-0.141524, 0.123236, -0.119878, 0.198288, 0.215452, 0.044531, 0.093164, 0.035281, 0.071363, 0.059907, -0.291611, 0.00804, -0.155233, -0.011287, -0.110342, -0.07145, -0.069434, -0.226765, 0.189264, 0.173122, 0.221249, -0.246097, -0.262907, 0.197211, 0.196583, -0.018235, -0.229118, 0.181219, -0.141508, -0.043959, -0.16195, -0.002308], [0.339753, -0.184722, -0.356709, -0.08901, -0.02258, -0.132191, -0.120243, -0.001154, -0.036391, -0.053723, -0.029284, -0.19336, 0.051101, -0.059, 0.041424, 0.095046, 0.185349, 0.252554, 0.055879, 0.089353, 0.060367, -0.129594, 0.176337, -0.175968, 0.165101, -0.101363, 0.040602, -0.136455, 0.171921, -0.155496, -0.061798, 0.004726], [-0.259024, 0.014703, -0.127303, 0.029991, 0.082531, 0.035521, 0.144947, 0.02154, 0.101136, -0.092385, -0.149952, -0.142148, 0.09224, 0.247025, -0.047979, 0.132151, 0.094264, 0.025922, -0.060956, -0.084671, -0.014301, 0.183473, 0.043747, 0.155726, 0.081454, 0.303231, -0.097332, -0.22452, -0.078672, 0.158823, 0.046805, -0.182922], [-0.197718, -0.131387, 0.033625, -0.133682, 0.056469, 0.153662, 0.030033, 0.040782, 0.020812, -0.435463, -0.113654, 0.17016, 0.129398, -0.059172, -0.223529, 0.029074, 0.067082, -0.173577, -0.18428, 0.081646, 0.176657, 0.107644, 0.038145, 0.03631, -0.037462, -0.288783, 0.116129, -0.079356, -0.062417, 0.049608, 0.114186, 0.009353], [-0.10061, 0.05389, -0.132731, -0.094039, 0.175168, -0.102885, 0.023919, 0.095802, 0.01397, -0.038818, 0.087827, 0.199925, 0.015549, -0.001005, -0.071392, 0.07132, -0.088526, -0.045974, -0.276506, -0.004563, 0.004847, -0.174504, -0.11435, 0.170926, 0.086392, -0.124999, -0.166836, 0.057131, -0.226514, 0.044877, 0.136411, 0.187054], [-0.074862, 0.057453, 0.166851, -0.09719, 0.186324, -0.110671, -0.177253, -0.066965, 0.13891, -0.177516, 0.034272, 0.257002, -0.083631, -0.056312, -0.041717, -0.140596, 0.122879, -0.009689, 0.082153, -0.09443, -0.149178, 0.107827, -0.129832, 0.220698, -0.123704, -0.066398, -0.102645, -0.136778, 0.19098, -0.019384, 0.299991, -0.220679], [0.040681, 0.077191, -0.043119, -0.122803, -0.093812, -0.08643, -0.127521, -0.186436, -0.084536, -0.158177, -0.082806, -0.06019, -0.040327, -0.134723, -0.02253, 0.287045, 0.099262, -0.171422, 0.03341, -0.071167, -0.076954, -0.238227, -0.003602, 0.324553, -0.028898, -0.203103, -0.172058, 0.074846, -0.06828, -0.069483, -0.10365, -0.162712], [0.209926, -0.055223, 0.390979, -0.152418, -0.1703, -0.097431, 0.149074, 0.040919, -0.081768, -0.105306, 0.087479, -0.167854, 0.16332, 0.293091, -0.263803, 0.130855, -0.176059, -0.264548, -0.104194, -0.019716, -0.076082, 0.200123, 0.047032, -0.043193, -0.189255, -0.270425, -0.157522, -0.145974, -0.061851, 0.105614, 0.021727, -0.059226], [-0.091888, -0.147732, -0.020362, 0.268915, 0.093202, 0.056834, -0.167364, 0.016393, -0.179464, 0.087134, -0.180921, 0.132763, 0.095372, -0.005471, -0.11533, 0.088875, -0.052465, 0.074425, -0.303543, 0.064306, -0.121239, 0.079562, -0.237478, -0.18016, 0.063399, -0.115743, -0.134543, -0.085318, -0.101962, 0.056272, -0.092474, 0.056243], [-0.048992, 0.065107, 0.002827, 0.042643, 0.191803, -0.021309, -0.025082, 0.033214, -0.066169, -0.125508, 0.122801, -0.316028, 0.043162, -0.142533, -0.193556, 0.492735, 0.043466, 0.067859, 0.105328, -0.158116, 0.171664, -0.070774, 0.148375, 0.083498, 0.082877, 0.179157, 0.05186, 0.030403, 0.152634, -0.158679, -0.102326, -0.176209], [-0.006315, -0.077697, 0.077352, 0.056951, -0.033817, -0.258664, -0.071223, 0.086077, -0.042219, -0.018777, -0.233925, -0.001849, -0.188869, 0.108575, 0.117496, 0.135083, 0.176778, -0.004573, 0.153008, -0.124149, 0.22578, 0.044756, -0.078072, 0.041265, -0.14348, 0.091274, 0.03853, 0.26921, 0.100001, -0.065559, -0.240748, -0.008352], [-0.163709, 0.198575, 0.143774, -0.079154, 0.130886, -0.13143, -0.028745, 0.17846, 0.161979, -0.168184, -0.229695, -0.00238, 0.080993, -0.238324, -0.105503, -0.308896, 0.108033, -0.156833, 0.067052, 0.248374, -0.002155, -0.167844, 0.037402, 0.061407, 0.010868, 0.123425, -0.076234, -0.002416, 0.125689, -0.16456, 0.060037, 0.005512], [0.062571, 0.079609, -0.037617, 0.167315, -0.046881, -0.040954, 0.046692, -0.010273, 0.126439, -0.02049, 0.036696, 0.247017, -0.036925, -0.031857, 0.130011, -0.119482, -0.012092, 0.057144, -0.019537, -0.147489, -0.094004, -0.008536, -0.096645, 0.118682, -0.046015, -0.223245, 0.073997, 0.116091, 0.010921, 0.097661, 0.117815, -0.052239], [-0.017202, -0.032964, -0.163249, -0.064287, -0.047228, -0.008139, 0.092191, -0.018136, -0.08917, 0.232214, 0.111886, -0.058112, 0.112609, -0.014348, -0.085613, -0.061375, 0.053319, -0.195942, -0.112084, -0.266217, -0.040811, -0.155069, 0.281937, 0.016692, -0.182464, -0.069361, -0.041299, 0.044163, -0.067442, -0.122877, -0.098711, -0.090149], [-0.131064, 0.037133, 0.139114, -0.142197, -0.095628, -0.001562, 0.200291, 0.221016, -0.095921, 0.009499, -0.319376, -0.017283, -0.236204, -0.120315, -0.036427, -0.184162, -0.115691, 0.162056, 0.09957, -0.179993, 0.054609, 0.073099, 0.167756, 0.041725, 0.201192, -0.062363, -0.140887, -0.061153, -0.021395, 0.121903, -0.017459, 0.004499], [-0.07252, 0.279736, -0.136369, 0.042348, 0.118449, 0.061848, 0.186831, 0.001013, -0.126043, 0.022687, 0.134031, -0.042882, 0.172231, -0.042245, -0.153901, -0.09972, -0.240014, 0.107313, -0.092293, 0.011867, 0.035291, -0.277397, 0.064906, 0.109523, 0.267915, -0.253181, -0.076595, 0.068715, 0.328181, 0.005775, -0.179403, -0.091691], [0.158555, -0.321425, 0.168187, 0.034864, -0.134132, 0.045401, -0.108116, -0.045485, 0.147297, -0.258427, 0.067794, -0.109075, 0.022199, 0.140501, 0.096077, 0.103057, 0.201002, 0.009823, -0.031496, 0.014894, 0.166114, -0.113653, -0.269187, -0.07101, -0.221453, 0.054332, 0.070862, 0.021563, 0.095158, 0.139191, 0.017703, 0.065522], [-0.039772, 0.035702, 0.205353, -0.118475, -0.031248, -0.169395, -0.039026, 0.137582, -0.167903, -0.265367, 0.009896, 0.10273, 0.116913, 0.110741, 0.014042, 0.032899, -0.036288, -0.126474, -0.005235, 0.033847, -0.018797, 0.125396, 0.114507, 0.128277, -0.205224, -0.138894, -0.11682, -0.150943, -0.015999, -0.177385, 0.042415, -0.051259], [0.195495, -0.177175, 0.039863, -0.132318, 0.138239, 0.020587, -0.134985, -0.039334, 0.095311, 0.100335, -0.078916, -0.056742, -0.065551, -0.083523, 0.20658, 0.159363, -0.009458, 0.018412, -0.155137, 0.083344, 0.033181, -0.142041, 0.038722, 0.038887, 0.133516, 0.043622, -0.03506, -0.15411, -0.032259, 0.105417, 0.126791, 0.146619], [-0.186508, 0.191681, -0.145394, 0.006048, -0.239698, 0.157251, -0.056935, -0.226969, 0.17131, -0.034239, -0.109001, 0.329983, -0.11008, -0.331956, 0.029911, -0.084858, -0.103055, -0.037871, -0.004365, 0.230485, -0.108272, 0.018265, -0.153595, 0.306435, -0.176737, -0.128482, 0.078572, 0.099867, 0.176389, -0.186892, 0.158244, 0.181032], [-0.019022, 0.17396, -0.075512, 0.103389, 0.209016, 0.194042, -0.029997, -0.05506, 0.157427, -0.104565, 0.032292, 0.268568, -0.033664, -0.234242, -0.122516, 0.066287, 0.05421, -0.048282, 0.107712, 0.0433, -0.189711, 0.198017, -0.067307, -0.160471, 0.037548, -0.238417, 0.174413, -0.114829, -0.314895, 0.171493, -0.129978, 0.011467], [0.056037, -0.065171, 0.269425, 0.223264, -0.031379, -0.155499, -0.166132, -0.160761, 0.184374, -0.304155, 0.114491, -0.338934, -0.164589, -0.024162, -0.134043, -0.070239, 0.304271, -0.07488, -0.125015, 0.10454, 0.275948, -0.122986, -0.073402, -0.095008, -0.048407, -0.105354, -0.05418, 0.11926, -0.092163, -0.133241, 0.212096, -0.251189], [-0.071751, 0.031903, -0.299217, -0.204676, 0.140324, 0.026336, 0.162546, 0.071006, 0.013087, 0.164454, -0.191122, 0.116117, -0.070148, 0.100836, -0.170956, -0.215094, -0.045313, -0.287171, -0.04155, 0.061075, -0.201289, 0.115833, 0.175815, 0.216034, -0.119759, 0.249373, -0.079579, 0.027676, 0.143359, 0.179892, -0.201286, 0.115911], [0.153157, 0.009323, 0.126547, 0.150695, 0.180046, 0.065584, -0.164589, -0.121584, -0.107256, 0.034478, 0.177956, -0.143124, -0.127873, -0.146524, -0.210384, 0.03912, 0.154594, -0.058535, -0.044576, -0.046189, -0.127776, -0.032899, -0.024373, 0.214159, 0.26397, 0.031176, -0.122267, 0.17827, -0.215952, -0.112305, 0.019696, -0.142041], [0.094553, -0.101086, 0.087502, 0.244176, -0.18114, 0.163176, 0.099185, 0.215454, 0.11875, -0.137696, 0.142509, -0.120478, 0.064326, 0.10076, 0.025847, 0.285522, -0.121173, 0.138853, 0.024156, -0.188667, 0.29767, -0.047811, -0.187009, -0.194404, -0.098116, 0.167826, 0.011507, -0.102135, 0.248151, -0.123873, 0.213724, -0.197903], [0.229493, -0.263507, 0.097625, -0.054223, 0.140151, -0.338177, 0.199438, 0.047834, -0.056493, 0.159589, -0.102344, -0.26247, -0.081483, 0.237728, 0.274687, -0.039104, -0.03393, -0.189981, -0.161081, -0.092057, 0.282628, 0.034616, 0.129849, -0.224321, -0.004395, 0.221446, 0.170846, 0.050867, -0.12711, 0.265174, -0.107236, -0.237173], [0.222715, -0.170708, -0.106503, 0.156028, -0.07835, 0.085113, 0.038618, -0.199927, 0.064069, 0.013392, 0.170662, -0.314334, -0.122196, 0.288415, -0.076251, 0.060086, 0.194324, 0.208742, 0.044582, -0.102902, 0.043684, -0.095231, 0.210721, -0.037115, -0.106828, 0.1329, 0.177478, 0.095524, -0.017543, -0.143368, 0.10104, 0.06927], [0.053105, 0.206476, -0.089062, 0.012183, 0.110705, 0.161101, -0.146028, 0.058236, -0.005255, 0.056677, 0.094547, 0.004351, 0.020165, -0.055085, -0.133363, 0.020406, 0.329279, 0.063265, 0.10572, -0.131402, -0.018763, -0.026098, -0.049445, 0.27405, -0.15674, -0.223231, -0.061563, 0.076026, 0.219131, 0.058026, -0.074937, 0.104738], [0.148953, -0.007171, -0.025031, -0.106768, 0.238783, -0.263885, -0.027376, 0.135394, 0.236109, 0.094477, -0.360262, 0.030385, 0.069299, -0.209915, 0.287974, -0.046995, -0.119972, 0.072692, 0.000327, 0.089777, -0.131329, -0.263812, 0.137157, -0.093906, 0.016927, -0.124022, 0.019967, 0.046295, 0.107086, 0.050814, 0.344331, -0.245453]], "attn_in_proj_bias": [0.032195, -0.011115, 0.084233, 0.071883, 0.074553, 0.075228, 0.03505, -0.021688, -0.021783, -0.055611, 0.021853, 0.026141, -0.031419, -0.047765, 0.047107, -0.006749, -0.086275, 0.05053, 0.005087, -0.03909, 0.107956, 0.080159, -0.091634, 0.127841, -0.112626, -0.00394, 0.028421, 0.055316, -0.013364, -0.183684, 0.112061, 0.230774, 0.000913, -0.003535, 0.00219, -0.00422, -0.000991, -0.002091, -0.002462, -0.001003, 0.001285, 0.000823, -0.001281, -0.001127, 0.001748, -0.00262, 1.9e-05, -0.000612, 0.004868, 0.000216, -0.001974, 0.001902, -0.003004, -0.000436, -0.000808, -0.001273, 0.002527, 0.001018, 0.002399, -0.002485, 0.002773, -0.001488, 0.001785, 0.002264, 0.057381, 0.009817, -0.04098, 0.013148, -0.017874, 0.001855, -0.005223, -0.028379, 0.001031, -0.014319, -0.013483, 0.030647, 0.008282, -0.036245, 0.013019, -0.083344, -0.01, -0.020477, -0.060793, 0.080401, 0.020986, 0.011998, -0.086594, -0.03143, 0.023921, -0.041088, -0.015354, -0.008399, 0.034415, 0.013816, -0.032282, 0.037571], "attn_out_proj_weight": [[0.261975, 0.243402, -0.301991, 0.093376, -0.067709, 0.089391, -0.039467, -0.023135, -0.058273, -0.023236, -0.051814, 0.073832, -0.019608, -0.065506, 0.020964, 0.085079, -0.021383, 0.133482, -0.022681, -0.004157, -0.031699, -0.171928, 0.003599, -0.104031, 0.008561, 0.214832, -0.174564, 0.116619, -0.063404, -0.112385, 0.102457, -0.091907], [-0.184703, -0.144721, 0.091199, -0.211353, -0.047079, 0.051054, -0.134483, -0.109134, 0.166743, -0.14746, -0.200468, -0.02902, -0.124106, -0.131878, 0.068013, 0.061958, 0.149739, 0.145713, 0.220661, -0.137511, -0.080542, 0.071192, -0.097317, 0.105486, -0.014871, -0.105317, 0.031601, -0.08547, -0.063697, 0.071693, 0.191719, -0.091869], [0.089963, 0.043981, 0.221279, 0.047461, -0.012765, 0.028013, 0.04674, -0.098751, -0.098926, 0.079193, 0.003686, -0.154774, 0.07882, 0.074289, 0.061311, -0.121984, 0.158005, 0.110113, 0.204535, -0.042684, -0.003889, -0.123496, -0.162447, -0.144537, -0.137585, 0.159982, -0.006945, -0.030416, 0.113296, 0.265694, 0.017896, -0.121061], [-0.134474, 0.179721, 0.078052, -0.062815, -0.051863, -0.141211, -0.115807, 0.056781, -0.004173, 0.085029, -0.174385, 0.149194, -0.148834, -0.06835, 0.085189, 0.186225, 0.002377, 0.177026, 0.126021, 0.023668, -0.124293, 0.009038, 0.179001, -0.15321, -0.235706, 0.176137, -0.066295, -0.102259, -0.039222, -0.267061, 0.096202, 0.203973], [-0.174027, -0.31311, -0.034456, 0.17854, 0.116938, 0.030468, 0.012287, 0.025082, 0.072536, 0.009012, -0.290901, -0.167751, 0.080071, 0.095744, 0.167473, 0.087527, -0.033308, -0.146933, 0.174516, 0.10548, -0.042229, -0.050735, 0.12396, -0.092279, 0.025744, -0.16755, -0.038449, 0.125242, -0.065847, -0.078132, 0.047324, 0.249985], [0.149744, 0.255422, 0.198043, 0.020247, 0.241435, 0.043965, 0.093709, 0.137992, -0.011549, 0.191104, -0.024148, -0.070775, 0.197889, -0.169592, 0.177021, -0.151553, -0.00078, -0.199725, 0.232689, -0.164712, 0.016497, 0.189785, 0.039379, 0.055157, 0.118831, -0.016307, 0.151622, 0.056327, 0.05745, -0.06316, -0.020676, 0.302548], [0.189924, -0.00083, -0.106272, 0.185099, 0.208159, -0.225222, 0.212278, -0.012631, 0.193513, 0.12051, 0.162912, 0.002129, -0.007947, 0.09162, 0.074961, -0.050454, -0.141255, 0.027453, 0.082422, -0.234529, 0.059006, -0.101187, 0.100619, 0.138929, 0.048242, 0.199362, 0.063779, -0.103798, 0.022036, -0.032821, -0.103681, 0.196974], [0.098618, -0.167544, -0.005201, 0.025928, 0.008898, 0.176373, 0.00394, 0.048456, 0.111831, 0.051235, 0.049208, 0.173227, 0.217892, 0.016041, -0.013764, -0.022821, 0.104822, 0.106587, 0.076278, -0.059069, 0.175273, 0.076326, -0.206932, -0.08167, 0.193295, 0.048455, 0.127651, 0.005285, 0.028277, 0.083297, 0.028349, -0.039276], [0.178804, -0.278884, 0.214166, -0.073551, -0.042029, 0.223977, 0.151175, -0.081595, 0.048009, 0.014157, -0.190077, 0.027227, -0.019747, -0.112246, -0.111938, -0.109319, -0.042858, -0.129235, -0.03397, 0.012459, 0.123208, -0.095907, 0.064948, 0.069442, 0.00351, -0.096785, 0.044317, 0.127139, -0.356575, 0.113844, 0.089852, -0.234244], [-0.093461, 0.127421, -0.093572, -0.047968, 0.023125, -0.115345, -0.041412, -0.121808, -0.15744, 0.000116, 0.156302, 0.131705, -0.046067, 0.122566, -0.113486, -0.061881, -0.126413, -0.126558, -0.082731, 0.128667, -0.188742, -0.051937, -0.029301, -0.134007, 0.129188, -0.200972, 0.024828, 0.140821, 0.057752, 0.154765, -0.184362, -0.022558], [0.029164, 0.115614, -0.143331, 0.127672, -0.172669, 0.026806, 0.110114, -0.066551, 0.102694, 0.092599, 0.116119, 0.067771, -0.074105, 0.103693, -0.072386, 0.04027, 0.001383, 0.113309, -0.265845, -0.091301, 0.048086, 0.001237, -0.115576, 0.24197, -0.060617, 0.016069, 0.171362, -0.088662, 0.026039, -0.032579, -0.149991, -0.083481], [0.200588, 0.101122, -0.057789, -0.147363, -0.06737, 0.032054, 0.064635, -0.045557, 0.05506, -0.040906, 0.218423, -0.109034, -0.012742, -0.05634, 0.180626, -0.051997, -0.012947, -0.075737, -0.184907, 0.048121, 0.12779, 0.067687, 0.31996, -0.091577, 0.166701, -0.042546, -0.129462, -0.062269, -0.172965, 0.103662, -0.027148, 0.05814], [-0.116193, -0.09536, 0.163494, 0.199408, 0.223872, 0.071859, -0.063545, 0.132424, -0.137528, -0.004092, -0.057045, 0.254453, 0.108172, 0.008142, -0.106744, -0.090153, -0.178442, -0.083106, 0.019572, -0.186851, -0.109394, -0.003605, 0.028753, -0.110996, -0.27085, -0.042084, -0.173157, -0.195998, 0.051888, -0.089279, -0.076594, 0.009691], [-0.09341, 0.137567, 0.003176, 0.185573, 0.02953, -0.006341, -0.050367, 0.132116, -0.168477, -0.047749, 0.056729, -0.242822, 0.104266, 0.040312, -0.024073, -0.035246, 0.205082, 0.032356, -0.068738, -0.132026, -0.00059, -0.05561, -0.040153, 0.04826, -0.140168, 0.027286, -0.042774, 0.099089, 0.186852, -0.064232, -0.053835, 0.317473], [0.077864, 0.221531, 0.047869, 0.227347, -0.102806, -0.074164, -0.146089, 0.033089, 0.04514, -0.212326, 0.079848, -0.019803, -0.075396, 0.029615, 0.239049, -0.215505, -0.131742, 0.104573, -0.072772, 0.013833, 0.009857, -0.064185, -0.086191, 0.023711, -0.006077, 0.018973, -0.182376, -0.081841, 0.098801, -0.140236, -0.08389, -0.002371], [-0.270755, -0.15214, -0.183992, -0.195813, 0.191059, -0.074537, -0.015005, -0.136616, 0.076588, -0.037127, -0.146025, -0.017985, -0.233881, 0.305299, -0.019532, 0.061945, 0.124336, 0.049235, -0.008202, 0.06275, 0.073196, 0.142506, -0.22954, 0.053654, -0.175023, 0.05481, -0.075775, -0.192712, 0.185261, -0.111104, -0.070902, -0.063338], [0.092573, 0.08295, -0.168973, 0.088457, -0.192331, 0.182604, -0.035535, 0.185959, 0.11467, 0.038763, 0.243582, -0.002774, -0.260797, -0.034112, 0.058753, 0.164309, 0.06543, -0.163832, -0.06998, 0.065061, -0.007687, -0.107581, 0.047607, 0.234238, 0.106459, -0.03641, -0.080088, 0.000888, -0.087159, 0.038255, 0.014976, -0.053851], [0.065236, 0.353848, 0.163184, 0.056508, 0.053518, 0.072366, -0.071196, -0.129988, 0.131477, -0.000584, 0.153594, -0.064384, 0.122071, -0.066165, -0.212117, 0.060666, -0.163367, -0.085064, 0.070379, 0.20129, -0.018085, -0.125907, -0.129298, -0.001751, 0.231769, 0.084222, 0.138621, 0.085269, 0.09933, -0.013736, 0.254094, -0.12483], [0.082918, -0.262608, -0.159365, -0.199543, 0.292933, 0.013375, 0.147191, -0.088595, -0.097541, -0.048615, -0.011445, -0.098348, 0.030172, -0.1714, 0.055205, 0.047404, 0.108017, 0.039773, 0.080315, -0.088554, -0.116314, -0.191708, 0.020852, -0.03372, -0.112079, 0.081922, -0.177726, 0.026675, -0.143719, -0.040661, 0.145056, -0.056779], [-0.026113, 0.192427, -0.0103, -0.037515, -0.050206, -0.239382, -0.188875, 0.064289, -0.153614, -0.007182, 0.102844, 0.091137, 0.021652, 0.011115, 0.049329, -0.115034, -0.164616, 0.16718, 0.081741, 0.006569, -0.172882, 0.035843, -0.070138, -0.143593, 0.221143, -0.249796, 0.079326, 0.265784, 0.154567, 0.095677, -0.046934, 0.004413], [-0.000852, -0.222449, 0.079723, -0.147548, -0.224532, 0.10422, 0.244973, 0.012421, 0.096953, -0.251177, 0.323936, -0.064034, -0.069963, 0.118348, 0.113954, -0.039018, -0.001198, -0.134375, -0.13705, 0.13911, 0.058625, 0.123796, -0.274767, -0.168976, 0.169812, -0.082871, -0.062805, 0.159818, 0.228269, 0.07814, -0.080911, -0.02333], [-0.10795, 0.058674, -0.277815, 0.055629, 0.051884, -0.020151, -0.253301, -0.132352, 0.11889, -0.056644, 0.028312, 0.057614, -0.098931, -0.028041, 0.089701, -0.068647, -0.111523, 0.104948, -0.010488, 0.089707, 0.267231, 0.085287, -0.023324, 0.028385, 0.061862, -0.025454, -0.081466, 0.080249, -0.095507, -0.038994, -0.12606, 0.166876], [-0.045914, 0.145505, -0.022843, -0.291824, -0.008722, -0.13352, 0.094058, -0.042239, -0.059773, -0.158208, -0.008693, -0.091269, -0.045007, 0.106355, -0.263368, -0.029669, -0.017957, -0.098941, 0.104091, -0.070496, -0.034934, -0.039046, 0.10024, -0.104434, -0.073115, -0.109925, -0.096008, -0.000298, -0.083811, 0.132595, 0.218807, 0.002916], [0.384977, 0.00261, -0.236881, 0.070404, -0.106454, 0.121476, 0.181861, -0.157811, 0.070041, -0.267502, -0.003209, 0.184439, -0.073769, -0.036915, 0.011579, 0.013797, -0.0236, -0.131477, -0.249649, 0.121882, 0.051046, 0.087318, 0.234148, 0.070183, 0.084201, -0.146505, 0.087379, 0.070402, -0.027586, 0.26108, 0.109592, -0.010944], [-0.160505, 0.021419, 0.022006, -0.019259, 0.004076, 0.024104, -0.119158, 0.132417, 0.030754, 0.150192, 0.034111, 0.080776, 0.223158, -0.080485, -0.093565, 0.002744, -0.003415, -0.191, 0.02266, 0.20014, 0.045538, -0.079004, -0.246812, -0.050377, 0.142016, 0.16425, 0.014959, 0.099327, 0.047584, 0.0919, 0.05783, -0.015402], [-0.064361, 0.146378, 0.125225, -0.103784, -0.158212, 0.155193, -0.055983, 0.025113, 0.240956, -0.054231, -0.208942, 0.160292, -0.047733, 0.014119, 0.099982, -0.026958, 0.014916, -0.048235, 0.009007, -0.134701, -0.12559, -0.180554, 0.021215, 0.262408, 0.219333, 0.047909, 0.183601, -0.121054, -0.041181, 0.031072, 0.202843, -0.068869], [0.291096, -0.13877, 0.09592, -0.070283, -0.003037, -0.086657, -0.110898, 0.135235, -0.017431, -0.083402, 0.011781, 0.106302, 0.00923, 0.098363, -0.291201, 0.012489, 0.100583, -0.074609, 0.140462, -0.19858, -0.060039, -0.085086, 0.153584, 0.082213, -0.06309, 0.202692, 0.215968, -0.109954, -0.225912, 0.069762, 0.129546, -0.091229], [-0.15314, -0.349995, -0.359835, -0.055408, -0.061959, -0.13339, 0.112727, -0.15201, 0.154939, 0.123073, -0.000843, -0.156703, -0.040045, 0.108722, 0.143501, -0.124271, -0.052804, 0.052532, -0.085446, -0.015543, -0.046406, 0.084003, 0.025141, 0.041666, -0.016184, 0.179277, 0.023704, 0.015828, 0.105997, 0.062845, -0.05653, -0.244239], [0.039118, -0.065537, 0.143455, -0.131584, -0.069657, -0.178917, 0.195015, 0.216718, -0.027915, 0.003416, 0.282812, -0.002043, -0.212812, -0.122123, 0.050075, 0.086134, -0.370598, -0.01503, 0.14822, 0.065414, 0.00414, 0.064802, -0.124268, 0.108895, 0.111056, 0.054646, -0.058482, -0.054015, -0.093481, -0.063472, -0.219451, 0.006988], [-0.209467, -0.011716, -0.114259, -0.078647, 0.174893, -0.14871, -0.053718, -0.13629, -0.130859, -0.042475, 0.022517, 0.035444, -0.065705, -0.029855, -0.101618, 0.079098, 0.074438, 0.044241, -0.060934, 0.061119, -0.30011, 0.102435, 0.172701, -0.083671, 0.025081, -0.061137, -0.043014, 0.081522, 0.034483, 0.185269, -0.015749, 0.143345], [-0.089487, -0.309078, 0.333623, -0.057734, -0.223918, -0.081153, 0.117276, 0.133436, 0.184431, 0.003828, 0.211908, -0.015496, -0.155204, -0.202696, -0.052118, 0.023065, -0.037482, 0.008197, 0.032043, 0.036307, -0.15602, -0.051645, 0.00667, 0.114131, -0.117208, 0.010416, -0.062424, -0.046402, -0.064132, -0.179428, -0.078757, -0.052135], [-0.234329, -0.004529, 0.064626, 0.179909, -0.019322, -0.033812, 0.159392, -0.016989, 0.024884, 0.047662, -0.114293, -0.05468, -0.012095, 0.09776, -0.073051, 0.11262, -0.123279, 0.109912, -0.114605, 0.044622, 0.064717, 0.193619, 0.083656, 0.05981, 0.163531, -0.088241, 0.054293, -0.207112, -0.008228, -0.205026, 0.149592, 0.271525]], "attn_out_proj_bias": [0.003558, 0.043022, 0.135101, 0.091387, -0.029745, -0.07562, 0.049867, -0.059525, 0.058596, -0.108397, 0.019385, -0.072102, 0.008347, 0.005037, -0.03765, 0.190391, -0.081249, -0.048915, 0.196875, -0.103536, -0.037361, -0.055103, 0.060959, -0.126889, -0.089673, -0.09127, 0.140825, 0.07005, 0.023701, -0.006907, 0.062423, -0.066914], "norm2_weight": [0.899305, 1.151564, 0.993088, 1.026345, 1.015275, 0.941816, 1.007191, 1.041645, 0.899876, 1.02238, 0.893611, 0.951741, 0.96857, 1.003712, 0.946233, 0.909132, 0.938623, 0.888656, 0.990785, 1.01044, 1.028591, 0.988016, 0.965012, 0.936986, 0.974, 0.958651, 0.989065, 0.962593, 1.038593, 1.091023, 1.006258, 0.896219], "norm2_bias": [-0.063068, 0.022547, -0.03453, 0.008827, 0.101242, -0.025831, 0.148347, 0.004161, -0.009644, 0.019919, 0.019828, -0.091187, 0.007075, -0.14832, -0.029498, -0.148561, -0.057457, -0.102811, -0.068374, 0.153017, -0.02757, 0.03441, -0.032162, -0.008875, -0.067218, -0.06805, 0.13393, -0.09663, 0.153172, 0.131523, 0.098318, 0.077251], "ff_linear1_weight": [[0.184965, 0.00457, -0.150865, -0.114816, -0.255149, 0.058141, -0.160526, 0.086647, 0.092036, -0.093687, 0.099101, 0.064564, -0.113349, -0.032625, -0.067092, -0.019456, 0.06461, 0.195672, 0.120015, -0.028452, -0.270922, 0.227038, 0.099563, 0.11219, 0.159217, -0.036279, -0.108989, -0.032441, -0.059062, 0.042882, 0.098511, 0.024647], [0.167418, 0.013497, -0.205057, -0.040675, 0.089637, 0.234513, -0.213528, -0.089552, -0.031966, 0.186708, 0.126851, -0.007467, -0.00334, -0.095849, -0.041056, 0.110436, 0.004607, 0.017199, 0.04931, -0.12427, 0.264309, 0.059422, -0.089348, 0.033709, 0.16972, 0.105863, -0.234304, -0.03125, -0.215773, -0.181719, -0.130358, 0.06929], [-0.21068, 0.13403, 0.026091, -0.174701, -0.214436, 0.023505, -0.173854, -0.100946, -0.220062, 0.202159, -0.024984, -0.141453, 0.185666, 0.150711, 0.02794, 0.07517, 0.078341, 0.23873, 0.124093, 0.016186, 0.006408, 0.194868, -0.013982, -0.19866, 0.04003, 0.031648, -0.108727, -0.048988, -0.140821, 0.151871, -0.189556, -0.254237], [-0.137377, -0.061917, -0.030952, 0.108583, -0.085599, 0.163843, -0.119885, 0.269763, -0.228825, -0.159574, 0.017557, -0.136134, -0.073605, 0.078773, 0.122665, 0.153121, 0.184089, -0.129615, 0.245705, -0.015587, -0.091753, -0.124908, 0.126084, -0.210435, -0.081144, -0.171742, 0.18063, -0.000607, 0.003163, -0.228789, 0.112369, -0.106132], [0.146927, 0.199336, 0.036784, -0.147701, 0.047146, 0.049201, -0.004352, 0.018382, 0.137959, -0.121582, 0.113102, -0.11049, 0.192106, -0.179578, -0.037565, 0.116355, -0.02483, -0.131069, 0.008751, -0.134645, -0.104504, -0.137931, 0.010341, 0.013312, -0.069335, 0.079735, -0.209301, 0.058915, 0.096616, -0.069755, -0.055052, 0.028604], [-0.024182, 0.246591, 0.113073, -0.142967, 0.161045, 0.20966, -0.06754, 0.008312, -0.130813, -0.130754, -0.001922, 0.089395, -0.269564, 0.221673, 0.166544, 0.120825, 0.18758, -0.05655, 0.03741, -0.100373, 0.083648, -0.081655, 0.115745, -0.063165, -0.11061, 0.104322, 0.00671, 0.113493, -0.030082, -0.200846, 0.133416, -0.133215], [-0.04446, 0.019712, -0.098595, -0.179018, 0.027684, 0.248495, 0.01222, 0.049237, 0.040191, 0.022371, 0.063949, 0.238906, -0.078299, -0.173116, -0.160427, -0.066273, -0.047901, 0.078371, 0.027834, 0.099667, -0.070176, 0.157242, 0.31204, 0.014175, -0.030308, -0.057277, 0.107421, 0.147255, 0.024636, 0.126397, 0.02043, -0.046374], [-0.295815, 0.178902, 0.262431, 0.137945, -0.094317, -0.172072, -0.12281, 0.051722, -0.099172, 0.058691, 0.03376, -0.003477, 0.181905, -0.113588, 0.220633, 0.035777, 0.02211, -0.033825, -0.13547, -0.01501, 0.050121, 0.12314, 0.217755, 0.027215, 0.109092, 0.198422, 0.108866, 0.027532, -0.078376, -0.239225, 0.158371, -0.008328], [-0.140315, 0.088263, 0.004181, 0.012756, -0.16099, 0.084952, -0.023392, 0.036875, 0.069221, -0.251624, 0.091256, -0.007691, 0.092161, -0.12106, 0.137078, 0.066073, 0.128152, 0.099637, 0.236221, 0.040656, -0.249974, -0.128914, 0.138569, -0.134376, -0.300567, 0.124691, 0.19868, 0.039177, -0.122843, -0.006619, 0.144049, -0.260019], [-0.17051, -0.04337, 0.135391, 0.169803, -0.005777, -0.143852, 0.073549, -8.7e-05, 0.108428, 0.10332, 0.059173, 0.125215, 0.145035, -0.053446, -0.114253, 0.10775, 0.159125, 0.016883, 0.027336, 0.1454, -0.180972, -0.106832, 0.035082, 0.054468, -0.032669, -0.071921, 0.079691, 0.229032, -0.229453, -0.245934, -0.217017, 0.029691], [0.073479, 0.082397, 0.183122, 0.039918, 0.221929, -0.057564, 0.031755, -0.069989, -0.221378, -0.009868, -0.002499, 0.023419, 0.153817, 0.082439, 0.272777, 0.198741, -0.060224, -0.071345, 0.083376, 0.082421, 0.10049, -0.079714, 0.078952, -0.14125, -0.217366, 0.107266, -0.196449, 0.112878, 0.07356, -0.041723, 0.060401, 0.026278], [-0.079888, -0.114645, 0.153998, 0.140762, -0.14109, 0.146232, -0.187533, -0.046547, -0.005926, 0.247314, -0.179019, 0.01617, -0.133246, -0.255479, 0.135974, -0.204317, -0.122634, 0.394328, 0.112151, 0.105619, 0.081021, -0.155438, 0.144814, 0.016252, -0.163482, 0.068271, -0.009314, 0.195947, 0.116049, 0.179802, 0.016871, -0.301761], [0.10736, 0.267415, -0.118101, 0.149652, -0.046939, 0.045395, -0.081775, 0.238064, 0.060484, -0.043068, -0.065128, 0.115713, -0.185956, -0.066934, 0.168874, 0.007497, -0.144607, -0.071021, -0.124104, -0.120301, 0.012447, -0.056636, -0.0298, 0.051005, -0.215211, 0.092876, -0.082651, 0.040886, -0.006585, 0.26664, 0.027778, -0.08802], [0.128794, -0.079847, 0.167612, 0.103209, -0.025709, -0.105129, -0.078644, -0.161171, -0.142918, -0.068634, -0.089442, 0.306643, 0.008271, 0.176192, -0.042637, 0.147659, 0.081741, 0.20585, -0.258723, -0.092889, 0.107413, 0.080927, 0.141912, -0.155206, -0.104626, 0.109204, -0.102155, -0.029305, 0.048833, 0.131014, -0.228519, -0.273093], [-0.006675, 0.161941, -0.214544, 0.076808, -0.039621, -0.106497, -0.041997, -0.141548, 0.101393, 0.092279, -0.104282, -0.080141, -0.267134, 0.073126, 0.185411, 0.01415, -0.030546, -0.194135, 0.070458, 0.075552, 0.338573, -0.249904, 0.015593, 0.154548, 0.123582, 0.182988, -0.156669, -0.161763, -0.048975, -0.043849, -0.046327, -0.166455], [-0.217185, -0.041124, 0.270119, -0.117682, -0.082556, 0.256709, -0.107867, -0.126457, 0.112332, 0.268346, 0.058314, -0.076326, 0.043667, 0.025354, -0.003105, 0.094365, 0.02488, 0.06464, -0.037712, -0.019256, 0.092078, -0.188576, 0.082084, 0.077891, 0.268117, 0.073339, -0.050924, 0.164318, 0.04242, -0.056386, -0.363959, 0.101192], [0.011407, -0.009695, 0.069939, 0.097534, -0.345826, 0.130301, -0.160252, 0.111494, -0.173007, -0.051734, -0.011585, 0.136969, 0.181477, 0.216277, 0.000296, -0.00609, 0.055324, 0.09359, 0.013057, -0.141865, 0.127627, 0.18454, 0.028374, -0.042232, 0.107897, -0.104899, -0.01464, 0.130811, -0.09502, -0.06608, -0.129508, -0.218549], [-0.134605, 0.304063, -0.011609, -0.039739, 0.031331, 0.220095, -0.031919, 0.204382, 0.004822, -0.050347, 0.185821, 0.101128, -0.291023, 0.068496, -0.199948, -0.008034, -0.080379, -0.149551, 0.024574, 0.092887, 0.149767, -0.074718, 0.053905, 0.095174, 0.014308, -0.019672, -0.030072, 0.045066, -0.175536, -0.077179, 0.222986, -0.236901], [-0.157763, 0.154083, 0.109429, 0.035817, 0.127267, 0.118839, 0.096504, 0.027807, -0.105003, -0.011648, -0.068765, 0.120073, -0.027614, 0.018441, -0.135854, 0.209697, 0.155213, -0.050816, 0.07608, -0.122839, -0.024763, 0.011683, 0.141793, 0.04348, 0.026807, 0.067745, 0.096681, 0.054092, -0.042196, -0.097333, -0.151314, 0.059141], [-0.208551, -0.144998, -0.237608, 0.229074, -0.054331, -0.047901, -0.06349, 0.181692, -0.000488, -0.112303, -0.138393, -0.003316, -0.158519, -0.083945, 0.121133, 0.02925, 0.109843, -0.080413, 0.350704, -0.150186, -0.052377, -0.147014, 0.014345, 0.06576, -0.080473, 0.052762, 0.128739, 0.096069, -0.029901, -0.24475, -0.049607, -0.1952], [0.073587, 0.227159, -0.132347, 0.113729, 0.123989, -0.095915, -0.236104, -0.094337, -0.074299, -0.296923, -0.015229, 0.24322, 0.142415, 0.094877, 0.066561, 0.01033, -0.137511, -0.110881, -0.078201, 0.040437, 0.070612, -0.004172, 0.156699, -0.191925, -0.197583, 0.032777, 0.250394, -0.089267, 0.184669, -0.167001, -0.01008, -0.193469], [-0.139504, 0.039637, -0.077579, 0.148683, -0.160594, 0.259681, -0.372808, 0.16003, -0.098917, 0.120646, 0.34844, -0.050447, 0.009668, -0.096596, 0.161031, 0.032373, 0.121166, 0.086763, 0.009376, -0.136096, -0.152979, -0.053722, 0.020576, 0.06056, 0.03971, -0.013053, 0.150074, -0.010783, -0.17521, -0.100484, -0.201149, -0.082745], [0.109651, -0.114082, -0.035309, 0.152355, -0.000139, -0.087017, -0.001008, -0.112343, -0.128073, 0.03091, -0.119791, -0.004472, -0.022219, -0.149343, -0.039618, 0.002669, 0.036463, -0.244712, 0.190982, -0.079362, -0.178424, -0.077039, 0.190228, -0.192546, 0.124156, -0.041885, -0.042918, 0.286816, -0.06846, -0.024814, 0.006225, 0.107914], [-0.045341, 0.15611, -0.115738, -0.058519, -0.218639, -0.111332, -0.109719, 0.012233, -0.124991, 0.069633, -0.146089, 0.170234, -0.082943, 0.128943, 0.062764, 0.012497, -0.025724, -0.184704, -0.069409, -0.124211, -0.083382, -0.088354, -0.077722, 0.24137, -0.062017, -0.054195, -0.23232, -0.253371, 0.059197, 0.089196, -0.29837, -0.146111], [-0.036527, -0.34747, -0.113061, -0.008932, -0.018932, -0.047889, -0.042875, 0.378803, 0.108387, 0.054511, 0.040437, -0.150073, -0.168025, 0.102436, 0.055762, 0.121409, 0.06096, -0.087389, -0.058187, -0.138934, 0.047797, 0.034664, 0.104342, 0.047429, 0.040829, -0.149357, -0.244983, -0.054975, 0.130062, -0.028509, -0.093986, 0.137303], [0.011152, -0.028353, 0.122877, 0.0973, 0.042405, 0.060381, -0.032907, -0.011811, 0.097621, -0.120202, 0.208571, -0.069361, 0.039733, 0.066062, -0.045594, 0.294605, 0.1014, 0.074528, 0.230488, 0.009749, -0.216936, -0.117766, -0.06001, 0.062718, -0.104262, -0.219451, 0.038547, 0.12632, -0.029924, -0.073207, 0.010499, -0.095927], [-0.089965, 0.37167, 0.234542, 0.045053, 0.119364, 0.145896, -0.25567, -0.073153, 0.248216, -0.044031, -0.142833, -0.025602, 0.018083, 0.050199, 0.089086, -0.120608, -0.187824, 0.192537, -0.032619, -0.109329, -0.020576, -0.002568, -0.045877, 0.116187, 0.067507, 0.072931, -0.118787, -0.060868, 0.074563, 0.247156, 0.108172, -0.125768], [-0.024519, -0.14517, 0.202625, 0.008125, 0.068424, 0.126013, -0.169007, 0.185407, -0.013887, 0.067448, 0.06314, 0.07646, 0.103426, -0.124968, 0.091102, 0.015621, -0.028368, 0.041801, 0.053112, -0.231837, -0.052761, 0.048502, 0.144074, -0.179454, -0.147173, 0.256117, -0.318345, 0.056025, 0.063279, -0.382946, -0.074616, 0.058745], [0.068746, -0.084946, -0.111346, 0.018387, -0.238578, 0.216469, -0.034494, -0.051604, 0.078712, -0.237409, 0.062093, 0.075969, -0.028363, -0.110255, -0.033183, 0.003844, 0.034008, -0.025699, 0.105557, 0.124284, -0.047066, 0.237646, 0.073055, -0.111174, -0.123601, -0.178416, -0.074, 0.098679, -0.051262, 0.071801, 0.175728, 0.089737], [-0.132514, -0.18147, 0.192753, -0.323394, -0.161249, -0.135276, -0.239138, -0.093849, 0.111591, -0.027156, -0.002513, 0.114141, 0.075128, 0.188996, 0.034947, -0.054661, 0.048313, 0.242388, -0.113876, -0.177849, 0.177525, 0.112518, 0.212965, -0.051691, 0.011362, -0.132466, -0.107626, -0.126283, 0.084968, 0.107483, -0.170154, -0.142945], [0.143225, -0.184957, -0.039431, 0.164858, -0.03504, 0.092797, -0.062891, 0.215155, 0.056477, 0.126679, 0.012831, 0.175306, 0.049623, -0.056843, 0.08785, -0.15872, 0.136972, 0.177748, -0.110189, 0.17016, -0.01429, -0.09686, 0.066063, -0.082384, -0.01018, 0.111285, -0.002066, 0.033906, 0.130516, -0.088388, -0.183956, -0.029197], [0.032318, -0.027162, -0.059605, 0.014964, -0.170491, 0.06595, 0.020344, -0.168631, -0.147347, -0.173122, 0.249459, -0.100834, 0.249518, 0.226846, 0.108213, 0.284611, 0.195153, -0.111569, 0.278803, 0.035373, -0.063308, -0.078505, -0.046071, -0.373239, 0.062396, -0.109529, 0.010733, 0.077348, 0.00113, -0.286735, 0.079543, -0.072793], [0.104987, 0.246243, 0.189314, -0.125452, -0.092664, 0.083891, 0.056436, -0.028231, 0.05277, -0.255718, -0.106112, 0.263957, 0.031519, 0.218538, -0.207809, 0.176607, -0.010928, 0.014022, 0.068308, -0.273828, -0.024078, -0.176323, 0.108089, -0.181597, 0.008092, -0.194584, 0.093047, 0.253618, -0.072745, -0.044197, -0.01231, -0.080438], [-0.066314, 0.004045, 0.042193, 0.056817, 0.101301, 0.246024, -0.150719, 0.163783, -0.054123, 0.091172, -0.218742, -0.226303, -0.092675, 0.070446, -0.022606, 0.287731, 0.123122, -0.089207, -0.130163, -0.19613, -0.022754, 0.117074, -0.058773, 0.071555, -0.065682, 0.182794, -0.268608, -0.080355, 0.25879, 0.139081, -0.298381, -0.048164], [-0.216708, -0.098641, -0.051319, -0.184667, 0.075128, 0.285442, -0.173509, 0.24564, 0.099276, 0.03896, -0.109789, -0.00975, -0.049386, 0.073926, -0.125025, 0.033728, 0.02557, 0.210631, 0.120983, -0.338699, 0.328042, -0.104083, 0.203313, -0.186416, 0.156316, -0.347925, -0.144726, 0.335992, -0.103037, -0.352057, -0.003401, 0.032715], [0.058514, 0.16372, -0.077871, 0.106209, -0.223219, 0.063688, -0.087349, 0.119308, -0.184466, -0.026535, -0.032643, -0.092618, -0.018279, 0.270192, 0.179948, 0.128215, 0.048609, 0.101299, 0.055239, -0.134417, 0.177139, -0.253114, -0.015431, -0.22195, -0.049921, 0.129269, 0.077696, -0.010967, 0.023642, -0.144517, -0.05932, -0.016714], [-0.082835, -0.158362, 0.051808, -0.089099, -0.037093, 0.197274, 0.137241, -0.067269, -0.294657, 0.030455, 0.200175, 0.006803, 0.23225, -0.110724, 0.085831, -0.112186, 0.0039, 0.11297, 0.051304, 0.199601, 0.014683, -0.012395, 0.233372, 0.065754, 0.162559, -0.027668, 0.008278, -0.021187, -0.018562, -0.144409, -0.218524, -0.021975], [-0.016361, 0.07632, 0.107505, -0.055071, 0.216096, -0.09546, -0.138363, -0.016974, 0.073603, -0.148236, -0.111113, -0.155568, -0.184263, 0.122506, 0.132764, 0.128202, 0.138829, 0.074981, -0.071405, -0.003375, -0.107527, -0.235793, 0.002501, -0.033712, -0.102831, 0.060838, 0.009889, 0.052384, 0.258473, -0.088012, -0.051609, 0.113466], [-0.064254, -0.233868, -0.093693, -0.237284, -0.154514, 0.153516, -0.289973, 0.284958, 0.195842, 0.046428, 0.206803, 0.288941, -0.138379, -0.116878, 0.186243, -0.111765, 0.115591, 0.098149, -0.13404, -0.121859, -0.04782, 0.017488, 0.19564, -0.045764, 0.373344, -0.034121, -0.075164, 0.089908, 0.151466, -0.232765, -0.052747, -0.162899], [0.082129, 0.159507, -0.120118, -0.121986, -0.173393, 0.004915, -0.142717, 0.179098, 0.007469, 0.197902, -0.06735, -0.014427, 0.24696, 0.056656, -0.08762, 0.1596, 0.043338, -0.005395, -0.06476, 0.061501, -0.122028, -0.167614, -0.053156, 0.07172, 0.145797, 0.103312, -0.141752, 0.097444, -0.166861, 0.15716, 0.113628, -0.09021], [-0.054822, 0.286669, 0.166619, -0.102479, -0.191087, 0.011413, -0.063972, 0.09539, 0.123892, 0.091912, 0.027533, 0.041118, -0.022262, 0.203522, -0.037617, 0.100204, -0.14751, -0.019179, -0.031945, -0.265136, 0.166753, -0.100566, 0.184704, 0.138285, 0.030141, 0.119304, 0.109093, -0.126125, -0.186275, -0.034756, 0.374311, -0.035664], [0.099045, 0.054726, -0.198998, -0.061983, 0.103702, 0.1196, -0.048579, -0.126596, -0.289429, 0.206897, -0.17727, -0.033155, -0.050865, 0.281026, 0.105806, -0.012928, -0.125105, 0.058427, -0.139456, 0.165415, 0.050344, 0.081769, 0.033386, 0.086718, 0.10559, -0.205758, -0.108781, -0.129418, -0.034041, -0.065278, 0.087192, -0.09806], [-0.035259, -0.078138, -0.025234, 3.3e-05, -0.162264, 0.205773, -0.272512, 0.124004, -0.077667, 0.061221, -0.143656, -0.176075, -0.012542, 0.077937, 0.222477, -0.047735, -0.131703, 0.110946, -0.028441, 0.081139, 0.096797, -0.107682, -0.162727, 0.175737, -0.02691, 0.055603, 0.0304, 0.02305, 0.059099, 0.205616, -0.244784, -0.312749], [0.162236, 0.259076, 0.151926, 0.09818, 0.02931, -0.174951, -0.110516, -0.245372, 0.108684, -0.234799, 0.208546, 0.096166, 0.214864, 0.050501, 0.156531, 0.123358, 0.006984, -0.078087, 0.074478, 0.024404, -0.007029, -0.113236, -0.091757, -0.104405, -0.023761, 0.109845, 0.064947, -0.139699, 0.017002, 0.052631, 0.153618, -0.154933], [-0.112397, -0.069057, 0.176327, -0.015096, 0.086985, 0.026487, 0.108398, 0.04641, 0.131046, -0.042536, 0.178215, -0.031652, -0.06839, -0.001926, -0.189332, -0.07385, 0.156702, -0.037827, 0.01494, 0.073765, -0.048528, -0.235414, 0.019141, -0.100861, -0.175203, 0.184265, -0.001309, 0.138578, 0.093697, -0.053179, -0.230919, -0.049631], [0.104892, -0.074354, 0.057917, 0.08545, -0.021934, 0.04975, 0.062377, 0.023782, 0.025248, -0.051273, 0.054332, -0.216729, -0.093976, -0.03499, 0.158186, -0.069946, 0.035999, -0.060473, 0.010558, -0.126754, -0.134808, -0.120838, 0.108397, -0.244169, -0.08826, 0.045716, -0.047949, 0.129098, -0.063925, 0.107069, 0.113826, 0.039395], [0.012966, -0.068863, -0.066884, -0.009451, -0.040908, 0.136199, -0.176549, 0.074444, 0.217463, -0.160845, 0.018495, 0.064026, -0.1451, -0.089878, -0.147501, -0.149445, 0.218543, 0.249505, 0.072165, -0.245132, -0.108152, 0.038145, -0.079827, -0.01729, -0.209001, -0.089129, 0.184746, 0.235078, -0.04006, 0.119261, -0.010168, -0.122489], [-0.218356, -0.274366, -0.016824, -0.059368, 0.090244, 0.148581, 0.046016, 0.024746, -0.037157, 0.109491, -0.079729, 0.023905, 0.014447, 0.315707, -0.09814, -0.04163, -0.055835, 0.156476, 0.137523, 0.189647, -0.075624, -0.04009, 0.071811, -0.003894, -0.070162, -0.127082, -0.040302, -0.040363, -0.01718, 0.071355, 0.081806, -0.060773], [-0.087044, -0.247529, 0.013386, 0.059433, -0.185712, 0.144126, 0.10168, 0.146819, -0.003338, -0.085156, -0.035091, 0.074271, 0.150727, -0.0081, 0.020698, -0.016304, 0.203309, 0.056677, -0.070914, -0.243586, 0.188255, -0.24846, 0.280934, -0.0839, -0.05336, -0.251896, -0.107548, 0.04854, -0.191424, -0.111362, -0.052606, 0.067035], [-0.140512, -0.00272, -0.077281, -0.032961, 0.101701, 0.001036, -0.044981, 0.091454, 0.219544, 0.246061, -0.134177, 0.278635, -0.091005, 0.081244, 0.135868, 0.090644, -0.129287, 0.235386, 0.002467, -0.13455, 0.044565, -0.08179, 0.011724, 0.037302, 0.055096, -0.125828, -0.01549, -0.062867, 0.054705, 0.01172, -0.043128, -0.163298], [-0.156826, 0.230518, 0.186724, -0.007325, 0.196448, 0.054462, -0.026481, -0.04528, 0.01572, 0.018071, 0.168863, -0.017812, -0.059965, -0.001704, -0.087356, 0.132061, 0.070999, -0.132347, 0.046028, 0.134563, -0.137733, -0.307454, -0.023314, 0.045117, 0.03715, 0.168669, -0.024528, -0.139338, 0.10963, 0.025571, -0.150741, 0.103731], [-0.014081, -0.072922, -0.160144, 0.176102, -0.026938, -0.052834, -0.115351, 0.277058, -0.204903, 0.134115, -0.092052, 0.124167, 0.189953, 0.239064, 0.19427, 0.059812, 0.095077, -0.043149, 0.027573, -0.140547, 0.03979, -0.017205, -0.083343, -0.081636, 0.0516, 0.110227, 0.143111, -0.017329, 0.05036, -0.096694, -0.083366, -0.111974], [-0.022041, -0.045886, 0.128253, -0.122858, -0.099327, 0.002124, -0.040921, -0.057237, 0.098516, -0.100637, -0.136138, 0.14885, 0.010627, 0.192755, -0.134561, -0.044616, -0.166383, 0.138721, 0.175303, -0.174313, 0.082149, -0.077766, 0.077519, -0.007513, 0.054088, 0.029333, 0.179015, 0.2613, 0.063817, 0.010983, 0.037273, -0.010509], [-0.242988, 0.037382, 0.126952, -0.182868, -0.14135, 0.170311, -0.432621, 0.392036, -0.108153, 0.23538, 0.182739, 0.060335, 0.077514, -0.033986, -0.040799, 0.232451, 0.200638, 0.237571, 0.059784, -0.010187, 0.064299, -0.139125, 0.300589, -0.1347, 0.178264, 0.03665, 0.040504, 0.106018, -0.312487, -0.099648, -0.258341, -0.020147], [-0.122968, -0.139766, 0.110299, 0.087774, -0.237908, 0.211019, -0.112816, 0.118982, -0.143497, -0.143124, 0.158112, 0.183257, 0.112003, 0.028889, -0.085771, 0.123801, 0.230981, -0.046984, -0.092803, -0.138952, 0.173285, -0.184877, -0.042007, 0.164449, 0.020153, -0.061976, -0.156898, 0.157024, 0.020603, -0.048676, -0.056054, -0.030969], [0.028878, 0.152896, 0.149693, -0.180142, 0.224348, -0.097617, 0.09585, -0.091072, -0.043166, 0.069313, 0.06676, 0.226686, -0.100528, -0.034158, 0.005183, 0.01906, -0.290985, -0.052135, -0.064718, -0.025473, 0.240674, 0.139439, -0.022871, 0.062019, -0.132528, -0.046261, -0.200872, 0.083069, -0.136472, -0.178355, 0.047128, -0.088762], [-0.013022, -0.063697, -0.008605, -0.146645, 0.115081, 0.031251, -0.199762, -0.096778, 0.012332, 0.02145, 0.053809, 0.186016, -0.120945, -0.182339, -0.089038, 0.16532, 0.127699, 0.106403, 0.283833, 0.018377, -0.023795, 0.101647, -0.072833, 0.126403, 0.14137, 0.031024, -0.188023, 0.077879, 0.098888, 0.218736, -0.13068, 0.009576], [-0.044183, -0.009536, 0.117151, 0.069309, -0.039855, 0.088773, 0.043092, 0.189909, 0.02834, -0.152181, 0.006362, 0.025104, -0.131703, -0.180489, 0.031582, 0.143102, 0.232194, -0.134907, -0.006003, -0.191825, 0.04536, 0.038016, -0.075922, -0.120261, 0.029509, 0.128075, -0.182526, 0.116059, -0.071494, -0.157778, -0.161543, -0.012896], [-0.111125, 0.139637, -0.14509, 0.004248, -0.077965, 0.05062, -0.085959, 0.036814, -0.009007, 0.217045, -0.042643, 0.239448, -0.212814, 0.057747, -0.039827, 0.168603, 0.009357, -0.05505, -0.139893, -0.030091, -0.151423, 0.031326, 0.221451, 0.102164, -0.16212, 0.145853, 0.0078, 0.03099, 0.191814, -0.190742, 0.022296, -0.034741], [0.000261, 0.148761, 0.142137, -0.052824, -0.206587, 0.12871, -0.033473, -0.13055, 0.088683, 0.154301, 0.088541, 0.050304, 0.043745, 0.000786, -0.084998, -0.023495, 0.088428, -0.056949, 0.022144, 0.18926, -0.050502, 0.04444, -0.070073, 0.126716, 0.031021, -0.182116, -0.236941, 0.048673, -0.026102, -0.075971, -0.038526, 0.204763], [-0.042175, -0.137333, -0.172162, 0.106279, -0.108397, 0.010523, 0.027236, 0.045564, -0.016329, -0.110217, 0.09564, -0.083755, -0.042015, 0.190553, 0.221158, -0.138616, 0.003346, 0.217098, 0.123624, -0.03192, -0.075142, -0.100131, 0.172312, 0.051373, -0.001133, -0.056645, 0.133594, -0.011776, -0.134295, -0.052363, 0.138735, 0.012713], [-0.126869, -0.105569, -0.021219, -0.105909, 0.219518, 0.019256, -0.044077, -0.092941, 0.057139, 0.121868, -0.169906, 0.159411, 0.137954, 0.073467, 0.088018, 0.09128, -0.167281, -0.17619, 0.349704, -0.20773, 0.028126, -0.073082, 0.267147, -0.22397, -0.056495, 0.021335, -0.205795, 0.244687, -0.04875, 0.061944, 0.005354, -0.235964], [0.16731, -0.001631, 0.246123, -0.197159, -0.122834, -0.004587, -0.217854, 0.122353, 0.186337, 0.040188, 0.168188, -0.143303, -0.120369, 0.050652, 0.12235, 0.237874, 0.184057, -0.077085, 0.061508, -0.216477, 0.103727, -0.069306, 0.15172, 0.133723, -0.152681, -0.000794, -0.055769, -0.132086, 0.133826, 0.046849, 0.056239, -0.076083], [-0.151137, -0.093727, 0.12616, 0.045683, -0.051361, 0.158166, -0.066575, -0.056778, 0.004611, -0.144324, 0.055437, -0.132993, 0.092484, 0.13745, -0.186058, -0.025941, 0.020451, -0.250941, 0.050064, -0.247195, 0.057337, -0.13677, 0.107543, -0.123766, -0.093653, 0.112586, -0.050168, 0.039663, -0.158569, 0.018154, -0.131705, -0.0014], [0.181068, 0.024649, -0.051509, -0.12388, 0.00979, 0.016451, -0.032555, 0.086212, 0.2032, 0.010921, 0.083751, -0.108395, 0.091631, -0.106658, -0.109588, -0.041975, -0.078162, -0.084249, -0.141594, 0.029449, 0.239614, 0.011146, 0.032266, 0.084585, 0.114719, 0.086497, -0.223885, 0.099938, -0.129612, -0.031472, -0.062432, -0.015748], [-0.179956, -0.281732, -0.199528, 0.030901, -0.021138, 0.013843, 0.074646, 0.107477, -0.118313, 0.05982, 0.097385, 0.165699, 0.078175, 0.085883, -0.027069, 0.022396, 0.001558, -0.076444, 0.234251, 0.166911, -0.080453, 0.221533, -0.102443, 0.010392, -0.097798, -0.053206, -0.120671, 0.132846, 0.061178, 0.076674, -0.024527, -0.031414], [0.02895, 0.043679, 0.110561, -0.055806, 0.054669, -0.239543, -0.190466, 0.024277, 0.017927, -0.093351, 0.031218, 0.068369, 0.07482, 0.049533, 0.204175, 0.081797, -0.086034, -0.023747, -0.024241, -0.007015, 0.137376, -0.005167, -0.140313, 0.010248, 0.227885, -0.134888, -0.251448, -0.109173, 0.050279, -0.068689, 0.10103, 0.111178], [-0.151031, 0.008993, 0.072184, -0.131626, 0.275149, 0.153247, -0.014341, -0.106776, -0.115577, -0.08632, 0.184066, -0.092187, 0.028546, 0.001449, -0.057299, -0.015673, 0.198944, -0.026892, -0.114017, 0.111328, 0.15266, -0.038601, -0.025687, 0.204845, -0.036376, -0.107644, -0.296177, -0.104987, 0.171955, 0.198412, -0.180731, 0.028681], [-0.003209, 0.022225, -0.111304, 0.090104, -0.113054, 0.033879, -0.023941, 0.218763, 0.082207, 0.193936, -0.179084, -0.04737, 0.177435, 0.071012, 0.079643, -0.119159, -0.050519, 0.062579, -0.056081, 0.130462, 0.188911, -0.063113, -0.07228, 0.124762, -0.129273, 0.021708, -0.123087, 0.104762, 0.124639, 0.033037, -0.120773, -0.182012], [0.198368, 0.016748, -0.326641, -0.066481, 0.072085, 0.154831, -0.181906, -0.099277, -0.296325, 0.035653, 0.053255, 0.098525, 0.053657, 0.326593, 0.166852, 0.070826, -0.115939, 0.032437, -0.174777, 0.159099, 0.232137, 0.185798, -0.002158, -0.158139, 0.107932, -0.076559, 0.048971, 0.093335, 0.00324, -0.104654, -0.022032, 0.083112], [-0.148751, -0.164768, -0.096735, -0.221516, 0.123189, 0.038779, 0.045552, 0.227419, 0.211384, -0.199644, 0.105476, 0.235644, -0.098894, -0.20145, 0.119753, -0.183039, 0.113337, 0.252499, -0.149898, -0.057454, -0.138374, 0.147487, 0.107835, -0.103394, 0.109149, -0.073511, 0.009062, 0.00345, -0.12944, -0.139388, 0.145942, -0.011096], [-0.175545, -0.071264, -0.054472, 0.155785, 0.069751, -0.052324, -0.105081, -0.096797, -0.010527, -0.283919, -0.073039, 0.07116, 0.059455, 0.08277, 0.215279, 0.006823, 0.054105, -0.069556, 0.124304, 0.24866, -0.158098, 0.010597, 0.252608, -0.121638, -0.259759, -0.023259, -0.111871, 0.191816, 0.114346, -0.064477, -0.067981, -0.255953], [0.162227, 0.00821, 0.120899, 0.152993, 0.098856, 0.026444, -0.092321, 0.176818, 0.091603, 0.035698, -0.178164, 0.249066, -0.041204, 0.048452, -0.136145, -0.01235, 0.030849, 0.135205, 0.052577, 0.030335, 0.279527, -0.051956, 0.029228, 0.06159, 0.090488, 0.261066, -0.104947, 0.08082, -0.090671, -0.08313, -0.125665, -0.046446], [-0.000431, -0.050831, 0.075137, 0.031902, -0.010401, 0.036, -0.356998, 0.127455, -0.02994, 0.04101, 0.314911, 0.163761, 0.03565, -0.215901, -0.03953, 0.019666, 0.153227, 0.061605, -0.140202, 0.001055, 0.096016, -0.224875, 0.23231, -0.111872, 0.049902, 0.031604, -0.255554, -0.052731, -0.270738, -0.039389, -0.15218, -0.043536], [0.01774, -0.081702, 0.192542, -0.119128, 0.291915, -0.085069, -0.100651, 0.024368, -0.263176, 0.159086, 0.029815, -0.080555, -0.001718, -0.038285, 0.04767, 0.116571, 0.119733, -0.068551, 0.025221, 0.348697, 0.0666, -0.184828, -0.041791, 0.009248, 0.039375, -0.067976, -0.1813, -0.134118, 0.037972, -0.168413, 0.037274, -0.011111], [0.128991, -0.022147, -0.146464, 0.141818, 0.026015, 0.184163, -0.184628, -0.04946, -0.267993, 0.006855, -0.058987, 0.128815, 0.122617, -0.035105, 0.169067, -0.091339, -0.122908, -0.050003, -0.097473, 0.084629, 0.129424, -0.085018, 0.107218, -0.103703, -0.026751, 0.013265, 0.041163, -0.026064, -0.096071, -0.245506, -0.057097, -0.040249], [-0.103532, -0.080196, 0.24552, 0.02195, -0.209962, 0.03168, -0.211345, 0.097986, -0.164417, -0.005787, -0.18805, -0.022153, 0.097279, -0.096928, 0.08354, 0.092598, -0.072285, -0.175076, 0.192163, -0.064284, -0.067684, -0.240627, -0.033471, -0.102237, -0.02911, -0.026129, 0.010022, -0.160138, 0.136729, -0.090695, 0.080679, -0.115635], [0.000239, 0.272301, 0.032826, -0.020443, 0.158358, 0.127433, 0.137711, 0.14188, -0.039089, -0.290177, -0.082532, 0.212979, -0.012697, 0.07003, 0.043956, 0.012844, 0.324336, 0.080855, -0.030799, 0.004089, -0.116936, -0.044351, -0.006421, 0.038794, -0.170136, 0.079046, -0.127353, -0.06643, -0.148452, -0.088117, -0.08639, -0.059529], [-0.135577, 0.259784, 0.195688, -0.196345, -0.019721, -0.130735, -0.166613, -0.23941, 0.10151, 0.129198, -0.110849, 0.366668, -0.157719, -0.114962, -0.177592, 0.002489, -0.079723, 0.056766, -0.122634, -0.067647, -0.188524, 0.075079, 0.028969, 0.091585, 0.004415, -0.008198, 0.011487, 0.316427, -0.219186, -0.151457, 0.04837, 0.013479], [-0.043682, 0.026786, -0.023566, 0.033897, -0.022719, 0.135071, -0.030805, -0.078222, -0.085202, 0.139276, -0.153716, 0.012512, -0.227569, 0.254751, 0.334871, 0.251371, -0.179914, -0.009019, -0.107252, 0.063064, 0.210343, 0.014015, -0.058778, 0.250796, 0.236978, 0.038987, -0.290424, -0.113782, -0.109012, 0.102723, 0.126766, 0.055373], [-0.1372, 0.051645, 0.018388, -0.165189, -0.274829, -0.045172, -0.199089, 0.001234, 0.174347, -0.057404, 0.049967, 0.121364, 0.182362, -0.179998, -0.135221, 0.203013, 0.030068, -0.01457, 0.064555, -0.168586, 0.125136, -0.00887, 0.130101, -0.06746, 0.157543, -0.047841, -0.256507, 0.20363, -0.344677, -0.237526, -0.000749, -0.194188], [-0.057874, 0.210802, -0.058635, 0.019581, 0.092119, 0.031712, -0.084839, 0.032477, -0.006551, -0.077632, -0.174553, 0.024121, -0.052037, 0.21151, -0.096021, 0.082584, 0.104738, -0.071267, -0.11682, -0.051994, -0.176648, -0.127548, 0.041165, 0.186133, -0.279616, -0.152269, -0.084502, -0.043129, -0.104612, 0.313246, 0.136491, -0.226688], [-0.10344, -0.169392, 0.128211, -0.113559, -0.174349, -0.11263, -0.124335, 0.059153, 0.099234, -0.216993, 0.056924, 0.058504, 0.1328, 0.121848, 0.03954, 0.267924, -0.174963, 0.035641, -0.103581, -0.000664, 0.043566, -0.030834, 0.334267, -0.033376, -0.349597, -0.123781, 0.042406, 0.049516, -0.037588, -0.022486, 0.062577, -0.174917], [-0.032161, 0.215559, 0.121972, 0.047163, 0.170056, 0.154519, 0.059123, 0.192179, -0.0371, -0.152698, 0.06163, 0.026741, 0.020266, 0.192726, 0.063726, 0.107727, -0.050352, -0.145502, 0.08859, -0.177651, 0.089646, -0.207364, 0.410348, -0.259683, 0.003741, 0.093607, -0.070223, -0.143959, -0.195794, -0.012541, 0.166864, -0.164736], [0.01152, 0.104848, 0.127415, -0.249798, 0.179064, -0.063381, 0.069768, -0.146012, 0.16196, 0.054698, 0.134852, -0.022237, 0.097957, -0.073864, 0.171959, 0.095814, 0.140763, -0.066388, 0.086535, 0.098586, 0.104927, -0.069965, 0.163944, -0.070022, -0.11552, 0.047623, 0.087592, -0.044057, -0.043654, -0.210493, 0.101887, 0.06651], [-0.145088, -0.020389, 0.132189, 0.208327, 0.018707, 0.078567, -0.168687, -0.050593, -0.064663, -0.106266, 0.066281, 0.193683, -0.125929, 0.086031, -0.102136, -0.062147, -0.050325, 0.133337, -0.135858, -0.123638, -0.025309, -0.090091, -0.096276, 0.046912, -0.134685, 0.007316, -0.062724, 0.019771, 0.168116, -0.150887, -0.090739, 0.276018], [0.039414, -0.095165, -0.162389, 0.136095, -0.033351, -0.090254, -0.224588, 0.030283, -0.030552, -0.122126, 0.281681, -0.004622, 0.012532, -0.110552, 0.061658, 0.03802, -0.112357, 0.076566, 0.174091, 0.103109, -0.156213, 0.015437, 0.054998, -0.054045, -0.022819, 0.210123, 0.114818, -0.151401, -0.025007, -0.297164, 0.071177, -0.11995], [-0.023227, -0.291945, -0.146441, -0.128153, 0.14112, 0.081088, -0.051415, -0.178979, 0.03539, -0.066149, 0.239979, -0.159798, -0.112033, 0.188387, 0.040992, 0.060496, 0.006588, -0.042813, -0.100367, 0.016885, -0.108699, -0.055166, -0.065615, 0.112709, -0.028437, -0.055171, -0.229849, 0.006414, 0.062695, 0.023472, -0.300522, 0.091865], [0.098131, -0.088964, -0.205083, -0.19184, -0.019607, 0.030366, 0.088342, 0.081442, 0.072122, -0.049003, 0.156254, 0.006881, -0.257906, 0.06107, -0.111288, -0.079457, 0.026466, -0.085313, -0.020382, 0.200357, 0.043748, 0.065217, 0.219737, -0.051653, 0.12664, -0.155045, -0.066009, 0.153403, -0.085371, 0.21629, -0.043045, -0.09562], [0.033595, 0.168961, 0.006661, -0.142143, 0.117357, 0.13571, 0.092107, 0.020932, 0.123833, -0.213565, -0.182289, -0.14509, 0.04351, -0.149442, 0.016824, -0.077138, -0.106849, 0.097057, 0.109539, -0.072464, 0.103595, -0.18261, -0.03993, -0.047533, -0.158981, -0.233914, -0.03516, 0.262494, 0.142931, -0.056149, 0.185472, 0.038135], [-0.082061, -0.148305, -0.090866, -0.018741, 0.06329, 0.20679, -0.19145, 0.085456, -0.030738, 0.184667, 0.128243, 0.017908, -0.051105, -0.275804, 0.026461, -0.106588, 0.072302, 0.153162, 0.169188, 0.109716, 0.217137, -0.222133, -0.001471, -0.167587, 0.154375, -0.163107, -0.084596, 0.013173, -0.111831, -0.000783, -0.059633, 0.179426], [0.110613, 0.082558, 0.12213, -0.210888, -0.052292, -0.024536, -0.010358, 0.166799, -0.161286, 0.06134, -0.103371, 0.037668, 0.241912, -0.100047, 0.02874, -0.090144, 0.129955, 0.075231, -0.033241, 0.054687, -0.227143, 0.117688, 0.138525, -0.037191, 0.137622, -0.19054, -0.134229, 0.05049, 0.144641, 0.10681, -0.016814, 0.007379], [-0.091195, 0.091191, -0.154491, -0.209578, -0.266078, 0.086602, -0.002285, 0.094017, 0.041168, 0.122329, 0.175477, 0.11324, -0.042098, -0.312522, -0.110361, 0.0739, 0.086396, 0.340459, 0.102737, 0.167061, 0.129787, -0.114398, -0.037546, -0.154087, 0.151997, 0.094102, -0.145616, -0.193595, 0.060599, -0.053249, -0.266133, 0.005703], [-0.079527, 0.189035, -0.114345, 0.310496, 0.099929, -0.025982, 0.029459, 0.136958, -0.050567, -0.067687, -0.077508, 0.017854, -0.071776, 0.188899, -0.021192, 0.040165, -0.024886, -0.211836, 0.235789, -0.224348, -0.041579, -0.349962, 0.043398, 0.050088, 0.059658, 0.108299, 0.024551, -0.000759, -0.319459, 0.103325, -0.178761, 0.017289], [-0.083302, 0.067508, -0.014352, -0.155968, 0.070099, 0.110257, -0.293896, 0.078533, 0.050957, -0.092516, -0.041696, -0.048064, -0.181519, 0.150634, -0.067199, 0.048116, 0.110016, -0.014391, 0.012722, 0.093479, 0.065418, -0.030352, 0.067176, 0.226197, 0.005242, -0.132994, -0.016108, -0.09199, 0.039377, 0.123017, -0.227894, -0.006052], [-0.044317, -0.210436, -0.119627, 0.092661, 0.080234, 0.067688, -0.018702, 0.172889, -0.176964, -0.062904, -0.026986, 0.078907, 0.094884, 0.111492, -0.025206, -0.03218, -0.209885, 0.129456, -0.003782, 0.357291, -0.011659, 0.042745, 0.070459, -0.122001, -0.095249, -0.101471, -0.011016, -0.061105, -0.093895, 0.016164, -0.114058, -0.057947], [-0.07028, 0.029968, 0.147645, 0.081615, 0.066049, -0.100714, -0.143438, -0.145115, -0.170062, -0.069813, -0.12316, -0.093016, -0.043696, -0.130349, -0.03398, 0.118862, 0.046896, 0.015781, 0.254454, 0.070615, 0.166425, 0.138086, 0.068951, 0.096275, 0.032532, -0.023636, -0.153506, 0.238805, -0.014068, -0.071375, -0.136186, -0.049852], [0.231653, 0.196415, 0.092995, -0.145487, -0.232288, 0.173815, -0.005737, -0.247613, 0.097531, 0.125721, 0.048105, 0.121955, 0.178645, 0.085697, -0.034476, -0.052621, -0.090001, 0.078997, 0.211351, -0.09368, 0.169461, -0.126005, -0.051821, -0.054411, -0.129859, -0.30585, -0.108536, 0.127999, -0.081475, -0.006247, 0.025905, -0.306955], [0.079606, 0.148541, -0.085525, -0.152146, 0.073989, 0.239094, -0.229403, -0.135563, -0.182634, -0.027268, 0.002024, 0.102687, -0.1652, 0.158062, 0.12889, 0.034334, 0.2332, 0.093216, -0.174881, -0.078095, 0.273982, 0.127931, 0.120691, 0.128122, -0.021577, 0.405979, -0.115986, -0.185454, 0.27297, -0.023392, -0.01998, -0.005537], [-0.019954, -0.162428, 0.327812, -0.067861, -0.220755, 0.140092, -0.305481, 0.045758, 0.232006, 0.141315, 0.094052, -0.081673, -0.087627, -0.125648, 0.09569, -0.070071, 0.033185, 0.138424, -0.218678, -0.020926, 0.110153, -0.173655, -0.038087, -0.154478, 0.103411, -0.025246, 0.042658, -0.040465, 0.182392, 0.125873, -0.137119, -0.254695], [0.028199, 0.0216, 0.149968, -0.02098, -0.18366, 0.145479, 0.051551, 0.212898, -0.076853, -0.126586, -0.099226, -0.129862, 0.187969, 0.161546, -0.2855, 0.124496, -0.18322, 0.083749, 0.317834, 0.01125, 0.036782, 0.023673, 0.027964, -0.053256, -0.061123, 0.048013, 0.187674, 0.13087, -0.072498, -0.075668, 0.043232, -0.117086], [-0.083145, -0.102775, -0.048556, 0.167918, -0.060587, 0.026615, 0.006501, -0.0463, -0.033362, 0.09272, 0.032003, 0.167365, -0.057682, -0.205101, 0.044799, 0.156887, 0.256181, -0.07222, -0.127331, -0.084297, -0.086675, 0.132694, 0.269243, -0.088796, -0.136833, 0.157528, -0.164971, 0.121043, 0.12443, -0.196106, 0.035074, 0.117166], [-0.001212, -0.0765, -0.024165, -0.265801, -0.094979, 0.117698, -0.246132, -0.122704, -0.070835, 0.29168, 0.054249, 0.136315, -0.174427, 0.005658, -0.021125, 0.012758, 0.165166, 0.091025, -0.199493, 0.079065, -0.16189, -0.031878, -0.080314, -0.095603, 0.123398, -0.004276, -0.136537, -0.123052, 0.038295, -0.063869, -0.187078, -0.084537], [-0.040674, 0.194785, 0.01235, -0.226516, -0.096377, 0.026854, -0.062305, -0.214158, 0.251029, 0.0022, 0.102659, 0.041587, -0.134797, -0.060498, -0.205684, -0.011076, 0.050893, 0.037472, 0.1287, -0.098209, 0.005489, 0.14984, 0.157439, 0.045425, -0.119521, 0.004574, -0.047136, 0.062893, 0.000139, -0.034167, 0.066676, 0.041637], [-0.006749, 0.272061, 0.094353, -0.052334, 0.101779, 0.136255, 0.113834, 0.107716, -0.093764, -0.096999, 0.136074, -0.172293, -0.052135, 0.029864, -0.056735, -0.040795, -0.085748, 0.095166, 0.125842, -0.091124, -0.080723, -0.097268, 0.035903, -0.119026, -0.23127, 0.299087, -0.012787, -0.080034, -0.213766, 0.051616, 0.006603, -0.195831], [0.048774, 0.02328, 0.169718, -0.001196, -0.21874, 0.149857, -0.19089, 0.00213, -0.02055, 0.009674, 0.023789, -0.034454, 0.112853, 0.029598, 0.036937, 0.07552, 0.112604, -0.054951, 0.040862, -0.289584, 0.122034, 0.06104, 0.126056, 0.076786, 0.235968, 0.009957, 0.054139, 0.257003, -0.066634, -0.189754, -0.153703, 0.016193], [0.110181, -0.155988, 0.028203, -0.186806, 0.165996, -0.053944, -0.037916, -0.179054, 0.139178, 0.035906, 0.025029, -0.083371, 0.035076, 0.169199, 0.018976, 0.09685, -0.0711, -0.027313, -0.033489, -0.088742, 0.076297, -0.138902, 0.223549, 